2224070 100
of -0.17014 -0.080429 0.0087492 -0.18316 -0.25683 0.065175 -0.083152 0.10182 -0.1162 -0.029445 0.016824 0.037971 -0.081537 0.13227 0.18252 -0.041166 0.16551 -0.0071699 0.082947 0.030703 0.0034626 -0.0378 0.054539 -0.040024 -0.51661 0.092102 -0.11585 0.17689 -0.12483 -0.24805 -0.041413 -0.14396 -0.25894 0.30173 0.089614 -0.28818 -0.22868 0.18292 -0.36909 0.10863 -0.31923 -0.069633 0.20543 -0.11595 0.11849 -0.13348 0.12316 0.068632 -0.10912 -0.083689 0.10301 0.0022424 -0.52354 -0.17797 0.079059 0.089698 -0.2258 0.1193 -0.36858 0.030774 0.13264 -0.17221 0.022918 0.08022 -0.028944 -0.085776 0.22304 0.093139 0.22212 0.15504 0.058508 0.14142 0.10973 -0.071239 -0.26452 0.10676 0.019161 0.25755 0.11311 -0.072961 -0.17845 0.0749 0.042851 0.058922 0.23205 -0.084733 0.14188 -0.021981 -0.079144 0.059046 -0.16791 0.43293 0.27425 0.034655 -0.15763 -0.11798 0.49245 -0.25172 -0.14133 0.17966 
the -0.077333 0.10128 0.10753 -0.0625 -0.14554 0.10517 -0.034027 0.11823 0.0082455 -0.098697 -0.2324 0.13727 -0.077416 0.1768 0.014933 -0.10102 0.093016 -0.10097 0.014927 0.031151 -0.083438 -0.049026 0.28075 -0.10425 -0.33565 0.08795 -0.085961 0.077354 -0.0096557 -0.17819 0.013732 -0.12903 -0.287 0.2829 0.084945 -0.23627 -0.12846 0.32456 -0.32757 0.081519 -0.42983 -0.059695 0.068404 -0.10618 0.11442 -0.088294 0.18621 0.061986 -0.2686 -0.19733 0.06859 0.086127 -0.34132 -0.17295 0.082603 0.19492 -0.31588 0.011118 -0.20844 0.19268 0.13711 -0.074106 0.069512 0.010455 -0.039432 -0.052753 0.28508 0.073083 0.15977 0.040341 0.056607 -0.0021139 0.13785 -0.075535 -0.27938 0.33586 -0.14449 0.18494 0.23505 -0.14047 -0.30476 0.17157 0.10342 0.072643 0.20449 0.0050417 0.13523 0.062609 -0.12893 0.10706 -0.21445 0.41376 0.24149 -0.13339 -0.22995 -0.19658 0.38534 -0.11227 -0.22115 0.18866 
and -0.12691 0.079385 -0.19721 -0.1682 -0.12195 0.034805 0.081037 0.079331 -0.1248 0.082304 -0.015446 0.16701 0.033204 0.15007 0.1402 -0.069203 0.10403 -0.074712 -0.086661 0.056883 0.066314 -0.070118 -0.12039 0.0097971 -0.28587 0.17977 -0.041729 0.15891 -0.2191 -0.13599 0.12241 -0.1076 -0.25282 0.20353 -0.066868 -0.28349 -0.26184 0.35504 -0.37798 -0.12966 -0.18257 0.12442 0.14712 -0.084715 0.22684 -0.27631 0.02219 0.088047 -0.052696 -0.0097247 -0.033205 0.13144 -0.28588 -0.17423 0.13136 0.15064 -0.37318 0.10872 -0.39623 -0.1228 0.2241 -0.21805 0.057951 0.21041 -0.097708 -0.059068 0.39228 -0.025398 0.11881 0.049018 -0.037763 0.17544 0.087786 0.07558 -0.10632 0.10478 0.088869 0.11609 0.0037447 -0.17909 -0.12161 0.19127 0.085089 0.20634 0.077306 -0.15698 -0.012613 -0.0076021 -0.20386 0.14845 -0.14479 0.4808 0.015571 -0.12425 -0.37465 -0.049978 0.024383 -0.25993 -0.1809 0.16308 
in -0.1408 -0.20454 -0.054745 -0.19393 -0.14091 -0.18842 0.096077 0.083748 -0.13029 0.13745 -0.1134 0.21001 0.16551 0.028985 -0.045272 -0.063248 0.22695 0.067997 -0.12427 -0.07443 -0.0087214 0.10769 0.061818 -0.021233 -0.3148 0.16936 -0.16025 0.044773 0.086145 -0.12547 0.16907 -0.26498 -0.1929 0.20399 0.29666 -0.33404 -0.44327 0.3198 -0.54767 -0.037652 -0.25509 0.049713 0.21554 -0.11419 0.20877 0.021996 0.17286 -0.11353 -0.17634 -0.051466 -0.038836 0.035392 -0.3519 -0.26138 0.067802 0.17616 -0.1856 -0.083534 -0.2646 0.018276 0.10399 -0.14788 -0.19528 0.067137 0.091575 -0.18048 0.32846 -0.0171 0.28673 -0.059365 0.064988 0.01872 0.29224 0.16857 -0.23004 0.19724 -0.12174 0.16928 0.29806 -0.18336 -0.44182 0.15272 0.092049 -0.012321 0.10322 -0.05294 0.16095 0.10836 -0.043909 0.1403 -0.19966 0.32343 0.042281 -0.048012 -0.23039 -0.024148 0.34395 -0.2007 -0.084751 0.12378 
to -0.21986 0.19493 0.1633 -0.087258 -0.3425 0.35023 0.080119 -0.19957 -0.016741 -0.064347 -0.14246 0.17341 0.14008 0.036368 0.09177 -0.13373 -0.084634 0.033574 0.29258 -0.23299 -0.11512 -0.00095255 0.15899 0.051455 -0.36634 0.20768 -0.13181 0.01935 0.013987 -0.0043448 0.057455 0.076974 -0.025939 0.034249 -0.093606 -0.12253 -0.15937 0.42552 -0.11484 -0.00056505 -0.22627 -0.052533 0.15134 -0.0020439 0.32709 -0.37096 -0.10885 -0.2422 -0.10591 -0.24312 0.0096662 0.19763 -0.45045 -0.010856 0.34302 0.041948 -0.6312 -0.047213 -0.38102 0.2218 0.14778 -0.2292 0.25494 0.2307 -0.28802 -0.19814 0.026678 0.10348 0.029234 -0.14138 0.042679 -0.044248 0.26715 -0.086198 -0.11796 0.26888 -0.16697 -0.072624 0.27229 -0.15035 -0.3045 0.09237 0.20766 0.095912 0.1537 -0.28633 -0.17566 0.072628 -0.27641 0.20069 -0.17693 0.44574 0.2927 0.027692 -0.20219 -0.15815 0.23057 -0.1581 0.039826 0.075822 
a -0.074817 -0.024411 0.13029 0.32546 -0.14092 0.22571 0.088447 0.19087 -0.0031812 -0.13458 -0.19164 -0.12764 -0.12308 -0.028518 0.15984 -0.094788 0.16229 -0.26008 -0.065571 -0.0031013 -0.0090421 -0.076539 0.095497 0.051597 -0.47019 0.090993 0.083555 -0.11363 0.012611 -0.15508 0.11356 -0.020804 -0.19459 0.34815 0.19236 -0.01033 -0.44229 0.35754 -0.48648 0.17119 -0.20719 -0.11748 0.22745 0.11671 -0.0080821 0.081145 0.25116 -0.10593 -0.16848 0.003736 -0.15237 0.012171 -0.58586 -0.046549 0.14451 -0.09347 -0.38985 -0.25621 -0.12278 0.21874 -0.026862 -0.30669 -0.077632 0.077669 0.23991 -0.22265 -0.075702 0.040746 0.36194 -0.18219 -0.41469 -0.31181 0.18794 -0.093757 -0.19867 0.32601 0.13973 0.13249 -0.073773 -0.012001 0.0021856 0.30166 0.25067 0.18699 0.63843 0.071475 -0.13061 -0.27088 0.05039 -0.0094627 -0.28821 0.39096 0.35243 -0.24707 -0.19582 -0.17161 0.3126 -0.23139 0.17769 0.13431 
</s> -0.9816 -0.42677 -0.24537 -0.18752 0.38792 0.3082 0.22364 0.27522 -0.23652 0.017124 0.12903 0.36708 0.22092 0.30749 -0.27204 -0.16545 0.63594 -0.16815 -0.14363 -0.21141 0.38528 0.21618 0.0063155 0.045661 -0.51892 0.12945 -0.38471 0.26437 0.22224 -0.31286 0.31048 -0.22098 -0.30964 0.28905 -0.10383 0.085519 -0.17644 0.030635 -0.059116 0.20082 -0.32538 0.045023 0.48841 -0.16211 0.41443 0.0090748 0.13726 0.049856 0.13824 0.22056 0.34264 0.10684 -0.63481 -0.24192 0.17346 -0.30036 0.1045 -0.30957 -0.3826 0.028282 0.0055337 0.019068 -0.19683 -0.24213 0.35637 0.51731 -0.22008 -0.14461 0.31813 0.19049 -0.11602 -0.023916 0.47326 0.18564 0.057243 -0.078951 -0.10804 0.32648 0.19348 -0.22139 -0.54118 0.093276 0.27074 -0.096112 -0.097543 -0.46706 0.11772 -0.17332 -0.18226 0.18157 -0.52417 0.47179 0.50207 0.64188 -0.54551 -0.077351 -0.037094 -0.39305 -0.51813 0.16203 
with -0.14415 -0.19732 -0.15897 -0.11133 -0.23424 -0.097565 0.18815 -0.070951 -0.26173 -0.20198 0.33864 0.018898 -0.15449 0.043105 0.20822 0.011183 0.16239 0.011086 -0.010273 0.0024537 0.34076 -0.002994 -0.20918 -0.14383 -0.46762 0.16102 -0.055586 0.013494 0.18202 -0.11125 0.066449 -0.065676 -0.32094 0.33889 -0.06012 -0.24913 -0.37783 0.18932 -0.44814 0.10758 -0.2181 0.11094 0.13013 0.13691 0.20583 -0.23162 -0.15191 -0.11742 -0.12648 -0.18803 0.03294 -0.21595 -0.16296 -0.17317 0.32046 -0.044402 -0.3617 -0.20397 -0.45686 -0.1136 0.31729 -0.20948 0.050508 0.032508 -0.0090648 -0.14939 0.28142 0.1477 0.26062 0.13464 -0.19168 0.062638 0.081961 0.032143 -0.09014 0.30947 -0.13806 -0.053401 0.20808 0.13884 -0.16209 0.22932 0.028135 0.15993 0.4853 -0.34518 -0.0081256 -0.21031 -0.1037 0.12741 -0.073191 0.14292 0.12299 -0.069003 -0.21315 -0.27635 0.062169 -0.25671 -0.029423 -0.21301 
was 0.20292 0.0211 0.25599 0.086232 -0.13409 0.12718 0.042502 -0.11646 0.037656 -0.00242 -0.024494 0.3846 -0.074659 0.13225 0.093271 -0.30258 0.09104 -0.020694 0.21974 -0.01619 -0.16697 -0.22277 0.16907 -0.25745 -0.53157 -0.24177 -0.12921 -0.038493 0.26127 -0.069323 0.078114 -0.15079 -0.3481 0.091909 0.30257 -0.14726 0.012842 0.43077 -0.75706 -0.16981 -0.23031 0.12609 0.11704 -0.066962 0.12385 -0.19919 0.39618 -0.044735 -0.13448 -0.36979 -0.14923 -0.023027 -0.23587 -0.019024 0.15006 0.28511 -0.38835 -0.092662 -0.1364 0.10724 0.10205 0.025331 0.0991 0.21422 0.088914 -0.13156 0.20065 0.0061701 0.3491 0.27541 -0.38023 -0.043907 0.40003 -0.15655 -0.077683 0.3288 -0.4189 -0.060766 0.0071475 -0.17296 0.018285 -0.011259 0.083734 0.23929 0.087667 -0.14677 -0.024577 0.073469 -0.15242 0.26081 -0.081182 0.12093 0.34733 0.036601 -0.13538 -0.0067062 -0.074461 -0.35472 -0.065438 -0.10499 
that -0.10601 0.06264 -0.25861 -0.070843 -0.25031 0.032274 0.30092 0.19257 -0.10107 -0.10253 -0.010553 -0.17302 -0.023826 0.024868 0.088456 -0.17384 0.11676 -0.11208 0.37978 -0.046046 0.097746 -0.025989 0.30125 -0.11052 -0.36251 -0.0016545 -0.11365 -0.06334 0.31784 0.036812 0.064523 -0.060378 -0.30094 0.17344 -0.058308 -0.1697 -0.27691 0.19972 -0.27735 -0.15605 -0.085025 -0.42247 -0.15203 0.082066 0.10598 -0.090886 0.1205 0.17748 -0.085654 -0.2881 -0.29315 0.11167 -0.067646 -0.16411 0.24142 -0.0046332 -0.51153 -0.24389 -0.0032844 0.13433 0.14331 -0.18028 0.21007 0.066499 0.0035378 -0.13486 -0.10893 0.015952 0.072579 -0.2971 -0.22498 -0.026804 0.28987 -0.15772 -0.073595 0.19795 -0.10984 -0.33455 0.11389 -0.34962 -0.33607 0.22359 0.062814 -0.32912 0.39042 0.17749 0.21136 0.066837 -0.03362 0.20436 -0.43628 0.21931 0.045793 -0.16598 -0.47648 -0.37705 0.59956 -0.017201 -0.1763 0.083097 
for -0.43239 -0.10141 -0.14498 0.068939 -0.17698 0.037867 0.17634 0.12459 -0.33881 0.16223 -0.20043 0.067342 -0.17322 0.014932 0.11895 0.18646 0.20778 -0.13851 0.015724 -0.033854 0.11623 -0.067558 -0.045196 0.11688 -0.63378 0.6387 -0.054558 0.21369 -0.10605 -0.1831 0.2638 0.082008 -0.055862 0.17934 -0.078958 -0.048511 -0.09809 0.18143 -0.29396 0.23013 -0.25962 -0.20407 0.23746 0.069938 0.14834 -0.13182 0.22599 -0.059826 0.063181 -0.01245 0.032238 0.082921 -0.59818 -0.17237 -0.054113 0.022862 -0.24325 -0.025771 -0.30193 0.087464 0.030398 -0.3655 -0.10738 0.39128 -0.25542 0.11988 0.37399 -0.073746 0.22083 0.044709 -0.039727 -0.23632 0.30605 0.16961 -0.092778 0.19933 -0.021916 -0.11527 0.10103 0.085029 0.30484 -0.022918 0.052554 0.27798 0.29903 0.053252 0.089957 0.0078293 -0.24105 0.19318 -0.32796 0.49285 0.35875 -0.13191 -0.25067 -0.023111 0.26037 -0.23713 -0.10219 0.23522 
by -0.010748 0.029059 0.19615 -0.2272 -0.082604 0.24322 0.15928 0.12581 -0.22957 -0.14282 0.11359 0.0024329 -0.19288 0.21767 0.32689 -0.35373 0.32877 -0.33168 0.22173 -0.11529 -0.050753 -0.1233 -0.061057 -0.24545 -0.49459 -0.18572 -0.011495 0.419 -0.096314 -0.032391 -0.027159 -0.081073 -0.55308 0.18539 -0.047336 -0.1781 -0.15345 0.029564 -0.47709 0.1122 -0.039383 0.14847 0.16064 -0.32205 0.56837 -0.35811 0.58281 -0.022626 -0.015697 -0.32667 -0.079619 -0.05363 -0.14801 0.027192 0.10845 0.026738 -0.26984 -0.09223 -0.017046 -0.067599 0.39866 -0.25417 0.25049 0.1846 0.28949 0.046897 0.34083 0.017764 0.2892 -0.0091332 -0.28806 0.19432 0.13866 -0.082425 -0.13727 0.24258 -0.19899 0.1661 -0.1788 -0.10923 -0.28098 -0.0079529 0.16103 -0.078046 0.1847 0.14714 -0.0031016 -0.43243 -0.19251 0.21553 -0.23343 0.10302 -0.20245 -0.0089511 -0.45165 -0.031363 0.022351 -0.18414 -0.22548 0.27629 
were -0.049046 0.12861 -0.17144 -0.070121 -0.20857 -0.3013 0.26129 -0.25371 -0.045187 0.11284 -0.028276 0.20023 0.11586 -0.12606 0.16361 -0.30894 0.19317 -0.0091182 0.094733 -0.070253 0.14311 -0.077286 -0.28209 -0.27066 -0.12686 -0.044699 0.15321 0.22481 0.54992 -0.059152 0.39633 -0.16146 -0.30514 -0.040688 0.1791 -0.22781 0.09978 0.39024 -0.46971 -0.15611 -0.23592 0.26576 0.17444 -0.11726 0.21539 -0.49107 0.40748 -0.13848 -0.24497 -0.39562 -0.088689 -0.058364 -0.082275 -0.051184 0.15235 0.29835 -0.44996 -0.11022 -0.43247 -0.025568 0.37004 0.053843 0.11952 0.22224 -0.23279 -0.25524 0.52798 0.030851 0.16707 0.36665 -0.37506 0.31099 0.1814 0.22569 0.062353 0.011581 -0.29512 -0.21404 -0.068838 -0.38851 -0.0048262 -0.029203 0.048856 0.35115 0.082283 -0.29378 0.11534 -0.079646 -0.25054 0.14295 -0.022668 0.21816 0.092762 0.039917 -0.17049 0.11532 -0.040351 -0.1783 -0.33497 0.087963 
The -0.35751 -0.25953 0.12737 0.032297 0.012603 0.3303 0.095993 -0.053799 0.025303 -0.11113 -0.0083988 0.063124 0.071822 0.26605 -0.18191 -0.33378 0.27727 0.094222 0.15405 -0.020155 -0.014451 -0.2214 0.37719 -0.20476 -0.52863 -0.12149 -0.38689 0.23071 0.1064 -0.066336 0.19661 0.03612 -0.36213 0.40975 0.0018096 -0.0075439 0.081996 0.24999 -0.15216 -0.18414 -0.21319 -0.16772 0.23462 -0.044092 0.10836 -0.26843 0.29484 0.1439 -0.12492 -0.067246 0.089104 -0.048177 -0.36096 -0.11202 0.16167 0.067574 -0.32559 -0.17596 -0.22887 0.11523 0.16779 -0.090706 0.12201 -0.16047 0.23288 0.02464 0.061185 -0.034659 -0.019105 0.21255 -0.44373 -0.11831 0.44763 -0.27256 -0.087016 -0.053207 -0.26234 0.17964 0.1147 -0.29322 -0.14677 0.36567 -0.025423 0.096222 0.10147 -0.38271 0.13083 -0.047162 -0.29809 0.05052 -0.22578 0.57957 0.4578 0.045359 -0.39859 -0.067596 0.40905 -0.30365 -0.32854 -0.17587 
is 0.040255 -0.2022 -0.028668 0.332 -0.19874 0.16015 0.13822 0.3515 0.19825 -0.39904 -0.19875 0.15855 0.071141 -0.19365 0.2725 -0.28548 0.34181 -0.21559 0.19444 -0.14372 0.090643 -0.11335 0.49961 -0.098123 -0.56695 -0.061457 -0.21655 -0.11577 -0.015846 -0.084993 0.17084 -0.16183 -0.32173 0.1036 0.12286 -0.20524 -0.45732 0.2627 -0.46387 0.22809 -0.16836 -0.53367 -0.048961 -0.16387 0.13471 0.25247 0.30336 0.35607 0.072834 -0.29989 -0.21719 0.21803 -0.35839 -0.26988 0.11955 -0.14081 -0.29684 -0.28603 -0.050371 0.016223 -0.088659 -0.13215 0.017663 0.21148 0.17588 0.033102 0.052983 0.11882 0.26541 -0.15659 -0.060903 -0.18079 0.56745 -0.48248 0.11262 0.47519 -0.23943 -0.058404 0.014804 0.0035835 -0.50027 0.26371 0.2631 0.042735 0.36019 0.26424 -0.37761 0.016191 -0.00072032 0.020085 -0.1969 0.29031 0.154 -0.040742 -0.14387 0.048454 -0.16113 -0.099129 0.18834 0.36761 
on 0.2174 0.092268 0.048078 -0.29545 -0.21953 -0.013491 -0.30664 -0.046597 0.0039199 -0.21655 0.15107 0.1385 -0.13702 0.30892 -0.063572 -0.12269 0.3735 -0.080058 -0.06136 -0.067736 0.28888 0.074448 -0.15196 -0.13036 -0.58988 0.023376 0.025212 -0.0099851 0.041853 -0.21938 -0.02868 -0.28226 -0.49568 0.21093 -0.1202 -0.22618 0.024894 -0.052502 -0.23839 0.20017 -0.2653 -0.068576 0.20075 0.090964 0.11425 -0.23443 0.3015 0.29633 -0.10281 -0.088905 0.17864 -0.052628 -0.50003 -0.19913 0.0057087 -0.095975 -0.29422 0.010395 -0.12011 0.23746 0.48169 -0.11734 0.012115 0.25401 0.20207 -0.093727 0.2887 0.26766 0.12811 0.15988 0.14996 0.19919 0.081828 -0.35146 0.075494 0.43798 0.16285 0.36154 0.15426 -0.31203 -0.25001 -0.055454 0.066529 0.20155 0.046968 -0.21618 0.26798 0.10804 -0.13584 0.12824 -0.48631 0.47939 0.13681 0.18874 -0.33479 -0.34672 0.047977 -0.14403 -0.23593 0.31628 
as -0.26881 0.18249 -0.13121 -0.022976 -0.31686 0.036189 0.36527 0.23498 -0.0097706 -0.15976 -0.17425 -0.061329 0.030084 0.18628 0.3258 -0.13471 0.33035 -0.11757 -0.25544 -0.061122 0.14217 -0.044872 0.062773 0.093527 -0.3679 0.40402 0.10241 0.098335 -0.05834 -0.1205 0.46311 -0.019496 -0.18112 0.020762 -0.029812 -0.12706 -0.21868 0.32664 -0.54469 0.26874 -0.23259 -0.26193 0.20644 0.00077501 0.11221 -0.16168 0.082064 0.26484 -0.01539 -0.071896 -0.033843 -0.0010911 -0.22682 -0.061755 0.10634 0.0031483 -0.30648 -0.30333 -0.12826 -0.10365 0.23725 -0.36423 0.062873 0.2104 -0.091963 -0.099932 0.38474 0.11651 0.14781 -0.012315 -0.28528 -0.038605 0.18693 0.16122 -0.14388 0.25753 0.031177 -0.014165 0.056022 -0.32154 0.078845 0.2375 0.28212 0.1075 0.3507 0.12459 -0.2997 -0.27444 0.037488 0.014125 -0.080363 0.49556 -0.05962 -0.41041 -0.17304 -0.046718 -0.13013 -0.052188 -0.26204 0.14248 
from -0.1419 -0.39578 0.035224 -0.01103 0.0076931 -0.23474 0.04854 -0.036983 -0.23016 -0.084807 -0.058701 0.26492 -0.08797 0.22438 0.062062 -0.13295 0.32193 0.0059292 0.049527 -0.24244 0.083021 0.17942 -0.16805 -0.53404 0.2511 0.36933 -0.30083 -0.02053 0.26555 -0.071858 0.41106 -0.50851 -0.24098 0.26836 -0.074572 -0.39666 -0.1982 0.35365 -0.37262 0.10466 -0.25766 0.11462 0.35093 -0.11608 0.58546 -0.21143 -0.033929 -0.0996 -0.36909 -0.013133 0.15874 -0.015872 -0.49846 0.0181 0.0069671 0.14129 -0.51348 0.22694 -0.082985 0.054054 0.17643 0.14751 0.083332 0.043172 -0.071193 0.038991 0.063168 0.17611 0.23505 -0.14539 -0.25466 0.24895 -0.035306 0.28459 -0.10202 0.092916 -0.069562 -0.11614 0.046636 -0.46093 -0.48575 0.1852 0.30254 0.089738 0.32015 -0.1557 -0.056431 -0.10314 -0.16449 0.15017 -0.12284 0.30769 0.27645 0.1446 -0.22004 0.22603 0.81166 0.006581 -0.092848 0.38539 
or -0.052387 -0.12947 -0.11748 -0.17206 -0.22219 0.0082175 0.12951 -0.064529 0.095477 -0.10308 0.13943 -0.037221 -0.05614 0.070975 0.24552 0.13707 0.40175 -0.055512 0.12404 0.10525 0.27637 -0.039064 -0.13058 -0.096926 -0.39005 0.32084 0.12868 0.36635 0.10883 -0.020092 0.22937 -0.16123 -0.18942 0.026615 -0.022709 -0.23843 -0.32135 0.089938 -0.023608 -0.13708 -0.082072 0.42785 0.10307 0.091754 -0.0026018 -0.27373 -0.25 -0.074893 -0.035699 -0.26384 -0.14914 0.10001 -0.48143 0.018427 0.1893 0.013186 -0.29817 -0.091053 -0.58747 0.1379 0.50182 -0.57845 0.32985 0.1681 0.017957 -0.043482 0.19103 0.068941 0.032191 0.19956 -0.026481 0.10352 -0.029339 -0.018893 -0.15093 0.50416 -0.0443 -0.14234 -0.028392 -0.087418 -0.25719 -0.093017 0.061102 0.36957 0.21916 -0.061967 -0.049573 -0.24081 -0.21956 0.20547 -0.11266 0.13831 0.012341 -0.1061 -0.12903 -0.20801 -0.14961 -0.033479 -0.11395 -0.10562 
cells -0.066339 0.03613 0.60129 -0.22026 -0.081036 -0.14179 0.45363 0.084502 -0.78298 -0.080675 -0.017853 0.15345 0.014747 -0.02697 0.27526 0.017761 0.13459 0.15939 0.45744 0.0761 -0.18875 -0.10578 0.19135 0.7013 -0.15424 0.38718 -0.79935 -0.15786 0.70616 -0.018659 0.25066 -0.60082 -0.32587 0.0016955 0.40899 -0.58916 -0.21786 0.16837 -0.075947 0.12801 -0.27201 -0.013119 0.2463 0.063548 0.17499 -0.46412 0.30019 0.0023587 0.065238 0.073316 -0.14963 -0.0079108 -0.35541 -0.2319 0.055323 0.30736 -0.44875 -0.31146 -0.26125 0.48302 -0.077261 -0.2374 0.28268 0.078292 0.28854 -0.19761 0.3068 0.10259 0.27077 0.090758 -0.10986 0.50647 0.13871 0.25043 0.067756 0.38481 0.28141 0.0062878 -0.14607 -0.56002 -0.60557 0.19021 -0.0018616 -0.19822 0.29517 -0.23015 -0.13168 0.21536 -0.40647 0.059158 -0.14841 0.035646 -0.29536 0.30515 -0.17074 -0.085024 0.14564 0.043276 -0.11064 -0.15326 
an -0.2219 -0.15219 0.23875 0.1552 -0.11566 0.32575 0.17648 0.18926 -0.01206 -0.24572 -0.20655 -0.11382 -0.2585 -0.0096993 0.17585 -0.22671 0.20378 -0.32484 -0.0034472 0.00062657 0.0073903 -0.11222 0.18532 0.14151 -0.4755 0.13113 0.055426 -0.20314 -0.05662 -0.14972 0.17701 -0.12544 -0.29915 0.34698 0.10897 0.032097 -0.44621 0.38108 -0.54493 0.34005 -0.10548 -0.1271 0.12532 -0.035202 -0.042586 0.01153 0.27183 -0.040689 -0.17324 0.022824 -0.12221 0.037875 -0.54001 0.0045753 0.16191 -0.011019 -0.33551 -0.20244 -0.11814 0.22223 -0.04914 -0.24769 0.0056265 0.077169 0.10848 -0.12692 0.00044137 -0.020003 0.37725 -0.26798 -0.36712 -0.45271 0.31485 -0.16117 -0.20657 0.41264 0.11547 0.046146 -0.00049809 0.015228 0.0070891 0.18808 0.29477 0.085934 0.60775 0.20013 -0.12862 -0.35752 0.076054 0.11484 -0.22237 0.34632 0.28715 -0.20738 -0.253 -0.14956 0.16895 -0.20108 0.060155 0.031375 
are -0.25562 0.092221 -0.44352 0.050627 -0.35421 -0.24023 0.44551 0.15144 0.18407 -0.21285 -0.18284 0.068965 0.54658 -0.5293 0.35653 -0.18445 0.43021 -0.064838 0.17131 -0.15233 0.24148 -0.12633 0.20205 -0.1325 -0.24023 -0.0006995 0.0013903 0.18634 0.38 -0.032248 0.34338 0.031761 -0.20902 -0.20605 -0.026638 -0.17579 -0.28614 0.1358 -0.10111 0.19248 -0.33298 -0.51286 -0.13529 -0.20161 0.14105 -0.1319 0.17826 0.31852 -0.021335 -0.3019 -0.085771 0.15899 -0.13161 -0.31299 0.2085 -0.106 -0.32736 -0.336 -0.35536 -0.064452 0.11101 -0.050057 -0.017849 0.31447 -0.23718 -0.29329 0.40622 0.2151 0.024583 -0.13405 0.050504 0.2475 0.34411 -0.073263 0.1046 0.23194 -0.2016 -0.26193 -0.025513 -0.22918 -0.61288 0.071507 0.045201 0.12847 0.18299 0.068354 -0.1993 -0.041727 -0.16091 -0.10685 -0.2647 0.47623 -0.054987 0.09273 -0.079276 0.16487 0.097979 0.035704 -0.15297 0.51747 
at 0.21942 -0.10871 -0.034374 -0.1629 -0.26065 0.1703 -0.056813 -0.083271 -0.10903 0.047934 -0.15765 0.69284 -0.094592 0.11214 0.007003 0.14039 0.060391 0.047773 -0.027923 0.12809 0.035356 -0.25475 0.0090808 -0.29024 -0.14414 0.23871 -0.29095 0.44238 -0.10966 -0.38431 0.31776 0.075352 -0.0090134 0.28756 0.15863 -0.47378 0.24421 0.26168 -0.17192 -0.2129 0.20233 -0.2846 0.35093 0.028003 0.13971 -0.32481 0.26256 -0.30972 -0.48091 -0.2615 -0.07515 -0.17211 -0.35681 -0.10716 0.01871 0.028713 -0.34958 -0.081104 -0.24377 0.44427 0.23634 -0.22065 -0.090654 0.059619 -0.05498 0.089448 0.2203 0.25077 -0.061186 0.12398 0.34228 -0.018266 0.38387 0.32516 -0.043648 0.38609 -0.28751 -0.2884 -0.1431 0.055842 -0.23122 0.2322 0.023994 0.49766 0.37324 0.13168 0.29924 0.09469 -0.22066 0.24788 -0.3416 0.46909 0.36208 -0.28946 -0.37461 -0.011152 0.10659 -0.27525 -0.065354 0.71284 
patients -0.23715 0.010882 -0.16503 -0.077255 -0.56491 -0.15137 0.43111 0.12374 -0.24516 -0.14326 0.088192 0.5066 0.20783 -0.39724 -0.26636 0.47074 0.082408 0.33734 0.21516 0.11873 0.10667 0.30657 -0.50843 -0.094079 -0.070329 0.55043 0.024065 -0.064142 0.14582 0.17257 0.32883 -0.38528 -0.65664 0.23914 0.3096 -0.36202 -0.28567 -0.066939 -0.33065 0.056378 -0.6597 0.012188 0.47527 0.21162 -0.009391 -0.045922 -0.17799 -0.36103 0.090398 -0.45208 0.14028 -0.54867 -0.4378 -0.58957 0.57757 0.25904 -0.12104 -0.08281 -0.60459 0.044581 0.41222 -0.24474 -0.27534 -0.020308 0.085544 -0.1097 0.31784 -0.34299 -0.036814 0.32491 -0.49761 0.0067264 0.60472 0.011402 0.15527 0.20956 -0.43873 -0.078343 0.38681 0.21936 -0.058892 0.16657 0.24737 0.010665 0.54691 -0.4014 -0.28519 0.27232 0.053346 0.1696 0.39863 -0.29229 0.2877 0.50216 -0.35772 0.10663 0.17501 -0.55762 0.17734 -0.024625 
In -0.14972 0.05665 -0.16949 -0.054991 -0.035424 -0.021099 0.049237 -0.071033 0.069959 0.048595 -0.098259 0.2513 -0.020145 0.23777 0.1844 0.27913 0.085722 -0.015919 0.068396 -0.31317 0.076979 0.32815 0.48606 -0.078574 -0.33734 -0.2472 0.1267 -0.08335 0.40216 0.11958 0.20706 -0.068427 -0.48557 0.22262 0.095084 -0.13308 0.036012 0.32654 -0.14767 -0.18958 -0.18602 0.2741 0.14127 0.2248 0.039132 -0.13357 0.25662 0.58101 -0.16756 -0.2451 -0.01767 0.14727 -0.23641 -0.46369 0.16111 0.35019 -0.46045 -0.30454 0.17059 0.33583 -0.051286 -0.40273 -0.1484 -0.29961 0.29609 0.17496 0.45304 0.013533 0.18923 -0.22922 -0.27362 0.14489 0.22649 0.096577 -0.47924 0.075285 -0.35159 0.22117 0.087134 -0.37524 -0.21425 0.33547 -0.1199 0.066944 0.053867 -0.12881 0.15031 0.29886 -0.22052 0.20938 -0.29621 0.19004 0.37467 -0.091584 -0.50391 0.083994 0.34897 -0.41018 0.085181 -0.41341 
be -0.25557 0.32212 -0.041135 0.073885 -0.24015 0.1286 0.39181 -0.056149 -0.10169 -0.4409 -0.14355 0.13831 0.18725 -0.15654 0.18307 -0.32267 0.39078 -0.083589 0.17537 0.055132 0.14684 -0.24361 0.30027 -0.10889 -0.55498 0.20323 -0.14022 0.12313 0.19692 -0.049762 0.45757 0.067115 -0.1223 -0.068421 -0.006577 0.17912 -0.08031 0.20128 -0.48457 0.1945 -0.28961 -0.32949 -0.035408 -0.26455 0.13279 -0.0347 0.23495 0.25551 -0.06719 -0.4793 -0.062365 0.087816 -0.2462 -0.13593 0.38873 -0.26908 -0.36748 -0.38783 -0.057303 0.12386 0.1003 -0.11657 0.12359 0.51545 -0.22451 -0.028091 0.087913 -0.002973 0.17525 -0.04772 -0.12957 -0.10005 0.54383 -0.070981 0.033346 0.26819 -0.35385 -0.40366 0.20215 -0.28169 -0.31003 -0.14584 0.22046 -0.11094 0.30268 0.13499 -0.20089 -0.13902 0.0036814 0.095585 -0.17592 0.040429 0.022857 0.33333 -0.30863 0.089086 -0.088158 0.044526 -0.3193 0.45669 
cell 0.28825 0.15465 0.063404 -0.13345 -0.11645 0.15463 0.24686 0.25278 -0.74785 -0.27069 -0.038691 0.022158 0.01733 0.14686 -0.13828 -0.10578 0.020053 -0.25509 0.21244 -0.14996 0.0192 0.18014 -0.046902 0.70797 -0.48547 0.20052 -0.68888 -0.23254 0.51905 -0.27636 0.096105 -0.60011 -0.38212 -0.015818 0.7373 -0.099005 -0.52123 0.26243 -0.029869 0.21778 -0.40403 0.0083612 0.014618 -0.039656 0.26036 -0.257 0.07837 0.23715 0.37176 0.060299 0.07713 0.069187 -0.40576 -0.32868 -0.33604 0.43628 -0.41137 -0.28419 -0.21736 0.54808 0.025892 -0.49292 0.043528 0.05951 0.0080806 -0.28716 0.3486 -0.14126 0.23746 -0.030873 -0.13391 0.6035 0.11412 0.16556 0.15313 0.18887 0.48197 0.24362 -0.30962 -0.5607 -0.12422 0.40362 -0.13241 0.13813 0.67687 -0.2056 -0.20205 0.25986 -0.32982 -0.027183 -0.28834 -0.017161 -0.25637 0.19818 -0.34612 -0.46598 -0.027549 -0.099428 -0.21894 0.36205 
not 0.0053891 0.048585 -0.17541 0.1044 -0.21868 -0.10125 0.26779 0.12461 0.49713 -0.13579 -0.10375 0.46267 0.20065 0.046333 0.22033 -0.089207 0.1192 -0.092146 0.18183 -0.012353 0.19733 -0.023178 0.35807 -0.15959 -0.33209 0.22391 0.087905 0.066306 0.49168 0.12097 -0.066227 -0.18219 -0.10281 -0.10399 0.052234 -0.020295 -0.31657 0.33945 -0.34343 -0.0066042 -0.15475 -0.02421 0.0012334 -0.283 0.02518 0.13138 -0.16021 0.25372 0.021432 -0.61294 -0.18429 0.48617 -0.037821 -0.10062 -0.00041531 0.20589 -0.67655 -0.1069 -0.38848 0.28532 0.41039 -0.16385 0.19223 0.26853 -0.1895 -0.01498 0.035785 -0.11816 0.26224 -0.075141 0.079782 0.26667 0.1129 -0.076254 -0.20023 0.48363 -0.13716 -0.38126 0.1825 -0.25557 -0.2602 -0.111 -0.028915 0.061194 0.16024 -0.1711 -0.047041 0.19371 -0.038751 0.18858 -0.30506 -0.084806 0.18824 0.21321 -0.14485 -0.19838 -0.35944 -0.072831 -0.24033 -0.076018 
expression 0.072153 0.56678 -0.19241 -0.1525 -0.12855 0.2004 0.40976 0.36214 -0.15873 0.28352 -0.17626 -0.13355 -0.042813 0.033944 0.31134 0.076917 0.056585 0.0015615 0.46077 0.13573 0.33767 -0.10984 -0.060845 0.27914 -0.34574 -0.30556 -0.79405 -0.20529 0.20858 -0.29271 0.01977 -0.25514 -0.35481 0.21139 0.43944 -0.30486 -0.53994 0.54602 -0.35204 -0.58708 -0.46765 0.080495 0.47135 0.013042 0.086831 -0.20953 0.28372 0.57597 0.02076 -0.49162 -0.30262 -0.078173 -0.15497 0.12083 -0.021733 0.5765 -0.26175 0.14898 -0.42577 -0.1346 -0.070507 -0.49249 0.03236 0.015518 0.26621 -0.19848 0.22986 0.18837 0.70207 0.15919 -0.063738 0.0018589 0.24842 -0.024145 -0.082634 0.0051744 0.04605 0.25024 0.21785 -0.22473 -0.36681 0.051305 0.26223 -0.39027 -0.18981 0.0083324 0.33381 0.56655 0.16202 0.1647 -0.026704 0.18478 0.094785 0.23868 -0.11368 -0.36611 -0.17519 -0.14957 -0.27913 0.21228 
this -0.13228 0.13666 0.066188 0.11216 -0.26538 0.27732 -0.097166 0.013612 0.26227 -0.080067 -0.20749 0.152 -0.1043 -0.056556 0.12641 -0.090906 0.00060895 -0.18553 0.19718 -0.22083 -0.092039 0.1941 0.66212 -0.052018 -0.50372 -0.047577 0.14405 -0.19611 0.18305 -0.029744 -0.073725 -0.091409 -0.34194 0.055997 0.10682 0.098485 -0.11273 0.31273 -0.33982 0.22268 -0.61714 -0.13092 0.1521 0.12413 -0.12097 -0.087728 0.32942 0.41945 -0.19521 -0.38915 0.19407 0.18465 -0.48852 -0.25159 0.28704 0.20232 -0.42805 -0.060488 0.11844 0.57235 0.034776 -0.23543 -0.086978 0.099775 0.067225 -0.020525 0.19966 0.040558 0.20523 -0.27192 -0.052613 -0.046596 0.34305 -0.18937 -0.27196 0.059549 -0.18968 0.17568 0.19754 -0.23219 -0.2004 0.11108 0.038743 -0.051014 0.3163 0.023672 0.072542 0.043808 -0.20127 0.042822 -0.33122 0.19223 0.55858 0.12977 -0.20682 -0.17252 0.26773 -0.21428 0.06233 0.11983 
which -0.072562 0.29989 0.030731 0.095815 -0.27302 0.045863 0.1682 0.078377 0.056751 -0.27487 -0.25058 0.10274 -0.24647 0.021538 0.34847 -0.070783 -0.067103 -0.39799 0.07514 -0.011915 0.097441 -0.21495 0.34801 0.094057 -0.089181 0.19696 0.014483 0.15343 -0.15707 0.019917 0.22837 0.068355 -0.21204 0.23202 0.017315 -0.11876 -0.34375 0.26528 -0.3293 0.084724 -0.10181 -0.12021 0.036585 -0.26501 0.16306 -0.029932 0.12786 0.34962 -0.27078 -0.33779 -0.1652 0.27929 -0.16506 -0.090868 0.38267 0.13371 -0.51328 -0.087309 -0.20826 0.1229 0.12402 -0.31105 0.17503 0.35667 -0.12817 -0.1653 0.34695 0.17087 0.13137 -0.26957 -0.19964 0.02482 0.058501 -0.028718 -0.28274 0.048856 0.14278 0.089632 -0.079272 -0.35046 -0.30221 0.43675 0.39252 0.22613 0.3993 0.083525 -0.39608 -0.071489 -0.15534 0.11955 -0.073427 0.28991 0.024275 -0.29673 -0.3562 -0.054433 0.0086117 0.014226 0.014148 0.33781 
protein 0.14982 0.48263 -0.061166 -0.048247 -0.6218 0.39596 0.33739 -0.00085659 -0.24037 -0.35355 0.31584 0.18778 0.324 0.31787 0.27852 -0.41409 0.0025985 -0.0092955 0.2716 -0.34428 0.36905 -0.31192 0.26588 0.38706 -0.28696 -0.3123 -0.32746 0.38555 -0.26927 -0.099687 0.24115 -0.63952 -0.45004 0.19966 0.25229 -0.33134 -0.5429 0.5232 -0.35507 -0.28728 -0.51715 0.032345 0.33153 -0.143 0.22122 0.4073 0.089335 0.15731 0.15427 -0.42667 -0.52779 0.10391 -0.27239 0.18785 -0.25898 0.25945 -0.41598 -0.078625 0.013558 -0.41689 0.0066004 -0.48928 -0.1496 -0.17874 0.12813 0.17454 -0.043084 -0.2784 0.50159 -0.029828 0.15946 0.12684 0.33666 -0.014643 0.1758 0.12765 0.24063 0.0062133 -0.077598 0.27795 -0.014901 0.34994 0.63642 -0.14264 0.18239 -0.19293 0.14398 -0.10041 -0.19794 -0.0011469 -0.13182 0.58995 0.60033 -0.39769 -0.030105 -0.55934 0.15718 0.063723 0.060393 0.047705 
have -0.026771 0.13025 -0.34313 -0.094129 -0.4404 -0.090022 0.55175 0.074337 0.061771 -0.27142 -0.2584 -0.072618 0.44726 -0.042973 0.027843 0.075256 0.27106 -0.056939 0.1134 -0.21067 0.39821 -0.12773 0.14918 -0.23093 -0.39662 -0.020719 0.25308 -0.068625 0.58441 0.030248 0.24988 -0.15793 -0.33394 -0.39385 0.0081001 0.017709 -0.32167 0.28185 -0.34081 0.31014 -0.46241 -0.47445 0.25239 0.16079 -0.020311 -0.19342 0.075374 0.20325 -0.075149 0.0001733 0.057849 0.023703 -0.20395 -0.1927 0.13015 -0.0033656 -0.53921 -0.38009 -0.2359 -0.01613 0.48222 -0.040376 0.095326 0.5141 -0.2711 -0.49265 0.2857 0.20291 -0.078106 -0.51128 0.07116 -0.046881 0.42189 -0.24754 0.09309 0.029811 -0.033752 -0.0064012 0.24741 -0.24435 -0.25612 0.21416 -0.054376 0.055995 -0.031791 -0.13345 0.0018803 -0.15453 -0.074945 0.088042 -0.30121 0.32005 -0.0098628 -0.10748 -0.24136 0.07928 0.26849 -0.10947 -0.035993 0.079637 
we 0.058905 0.36126 -0.3269 0.07831 -0.58496 0.0040804 0.021402 0.068396 0.15737 0.017028 -0.22922 -0.017975 -0.12158 0.40801 0.29521 0.22788 -0.086441 -0.30325 0.075438 -0.40518 0.16426 0.2731 0.45538 0.070944 -0.32297 -0.25334 0.23076 -0.33205 0.38452 0.065779 0.23099 -0.076485 -0.62524 -0.0060432 -0.068619 0.020651 -0.16559 0.35114 0.0060375 0.0095671 -0.65126 0.0012403 0.087159 0.2345 0.11056 -0.47425 0.30228 0.68023 -0.24471 -0.42121 0.0609 0.16603 -0.075189 -0.26058 0.11514 0.34597 -0.77737 -0.27141 0.12008 0.65104 -0.041632 -0.54957 -0.056175 0.14244 0.10473 0.024769 0.45641 0.1238 0.21866 -0.5023 -0.20478 0.14508 0.33508 -0.20398 -0.15139 -0.16289 0.013902 0.19937 -0.020591 -0.32771 -0.14963 0.39186 -0.055648 -0.3249 -0.1019 -0.11551 0.12827 -0.10762 -0.15666 0.17536 -0.23088 -0.077118 0.41106 -0.21016 -0.5556 -0.10873 0.21477 -0.28131 0.24983 -0.011651 
We -0.32576 -0.12917 -0.33922 0.1057 -0.45935 0.096817 0.22316 0.086927 0.21003 -0.035963 -0.14682 -0.054288 0.092323 0.43552 0.027793 -0.0859 0.11123 -0.073416 0.17793 -0.25529 0.14549 0.056103 0.23216 -0.071959 -0.51494 -0.13647 -0.25461 -0.025461 0.50341 0.11769 0.42074 0.023569 -0.66105 0.26249 -0.12184 0.12594 -0.10994 0.19923 0.23846 -0.27489 -0.34175 -0.22065 0.30857 0.15376 0.2949 -0.39207 0.18546 0.40594 -0.20957 -0.27593 0.11817 -0.11041 -0.18983 -0.31894 0.10037 -0.015933 -0.66047 -0.56183 -0.16151 0.69216 0.096756 -0.47768 0.0054271 -0.17499 0.53108 -0.14353 0.037399 -0.037678 -0.053821 -0.36236 -0.55161 -0.15751 0.46159 -0.27033 0.087491 -0.22561 -0.26256 -0.08065 0.10849 -0.3556 -0.077934 0.331 -0.015114 -0.34916 -0.16761 -0.60716 0.23975 -0.15688 -0.17636 0.23154 -0.19731 0.16387 0.40428 -0.016226 -0.70203 -0.013632 0.37393 -0.21228 0.062658 -0.12149 
but 0.14075 0.084197 -0.25307 0.0763 -0.13555 -0.22326 0.1835 0.015998 0.25118 -0.093388 -0.01618 0.55396 0.045049 -0.0022158 0.32827 0.10199 0.11227 -0.31836 -0.043287 0.1856 0.11733 -0.20384 0.30642 -0.042663 -0.10337 0.22469 -0.038248 0.16675 0.15029 0.15724 0.065638 -0.020789 -0.10575 -0.0035798 0.054539 -0.20129 -0.37088 0.29612 -0.3902 0.024948 0.11698 -0.012435 0.0073053 -0.24162 -0.021509 0.12806 -0.11047 0.41659 -0.031134 -0.3846 -0.28236 0.44255 -0.01802 -0.29447 0.089366 0.19818 -0.56244 0.018821 -0.39851 -0.020314 0.23716 -0.4309 0.12015 0.33644 -0.11745 0.051714 0.31702 0.13601 0.37412 -0.13535 -0.0038244 0.21434 0.032478 0.066809 -0.51713 0.52699 0.088751 -0.072647 0.059703 -0.32656 -0.35899 0.14687 -0.015674 0.1633 0.27611 -0.10433 -0.096491 0.25969 -0.1283 0.12815 -0.19132 0.12593 0.056658 -0.034645 -0.25082 -0.018594 -0.39038 -0.072186 0.018202 -0.078071 
between 0.17796 0.16577 -0.44988 0.16795 -0.45993 -0.10881 -0.27483 0.61612 -0.058035 0.22093 0.128 0.11054 -0.0051705 0.058889 -0.22875 -0.13451 0.12623 0.41149 0.15487 -0.18085 0.17632 0.062694 0.069532 -0.017038 -0.2315 0.2268 -0.037702 0.016883 0.059138 -0.1721 0.21811 -0.071853 -0.051311 -0.015418 -0.31152 -0.46222 0.11208 0.48952 -0.27185 -0.043274 -0.32374 0.1237 0.28075 -0.15478 -0.068306 -0.1899 0.26716 -0.22503 -0.046191 -0.083733 0.14924 0.12162 -0.027957 -0.32851 0.22242 0.25107 -0.27229 0.14746 -0.58675 0.23603 0.26185 0.18663 0.14984 -0.24952 -0.13174 -0.095345 0.11 0.14798 0.060581 0.26022 -0.07845 -0.24535 0.29759 0.13683 -0.01857 0.5117 0.10839 0.15835 0.35283 0.29838 -0.42939 0.33383 -0.18384 0.15804 0.14603 -0.82243 0.41813 0.22946 -0.08902 0.079798 -0.33804 0.56473 0.42764 0.11744 -0.50044 -0.36945 0.36802 -0.22712 -0.40318 0.16987 
levels -0.028719 0.43721 -0.3952 -0.11544 -0.3719 -0.12879 0.54474 0.069127 -0.0099136 0.31294 0.10117 0.66381 -0.042144 -0.1434 0.33394 -0.2189 0.21304 0.2051 0.27348 0.17213 0.099493 -0.020633 -0.076816 0.08559 0.15478 -0.11741 -0.148 -0.15234 0.18642 -0.18623 0.5203 -0.69678 -0.21438 0.3889 0.41015 -0.37126 -0.24473 0.72391 -0.3447 -0.56625 -0.15727 -0.11511 0.45181 -0.10172 0.33446 -0.20902 0.080792 0.312 0.14119 -0.328 -0.22296 -0.10212 -0.0176 0.070147 0.26849 0.039719 -0.41765 0.29922 -0.59562 -0.024584 0.12047 -0.6408 -0.037341 -0.28659 -0.15425 -0.22211 0.039859 6.9336e-05 0.20295 0.27344 -0.046797 -0.0093769 0.25888 -0.022887 -0.20217 0.042801 -0.30184 0.2599 0.08405 0.21509 -0.17934 -0.16146 -0.13211 -0.29116 -0.012176 -0.18308 0.22067 0.24564 0.27556 0.090438 -0.15404 0.20245 -0.023716 -0.19338 -0.11908 0.021197 -0.18921 -0.4613 -0.36496 0.22293 
after 0.29752 0.06305 0.13511 -0.17255 -0.013007 -0.042482 0.046624 0.01187 -0.30064 -0.27558 0.058197 0.27896 -0.069676 0.22932 -0.068684 0.30334 0.21635 -0.22196 0.17658 0.181 -0.090709 0.19391 -0.23067 -0.20782 0.0037986 0.42818 -0.071191 0.31065 0.031449 -0.24206 -0.02433 -0.097712 -0.5825 0.17024 0.35203 -0.75913 0.082796 0.44241 -0.11625 -0.033954 -0.054502 -0.14926 0.69561 -0.072813 0.28618 -0.13969 0.5106 -0.003339 0.010897 -0.045241 -0.37113 -0.019607 -0.53809 0.088296 -0.00055542 0.029304 -0.41928 -0.39052 -0.27775 0.050898 0.28149 -0.47613 0.14176 -0.0441 -0.30939 0.26734 0.14624 0.055097 -0.0032763 0.29097 0.088151 0.28559 0.19823 0.25445 -0.064336 0.51078 -0.28777 -0.16846 0.10048 -0.011491 0.098237 -0.23444 -0.18525 -0.084252 0.21631 -0.0813 0.25103 -0.42498 -0.20921 0.83031 -0.19293 -0.34631 0.60694 0.27007 -0.18362 -0.089703 -0.12832 -0.74131 0.024146 0.22936 
human -0.12495 -0.19056 -0.23546 -0.088488 0.021058 -0.15374 0.25396 0.069797 -0.22232 0.003761 0.044898 0.0055267 -0.27271 0.30705 0.32667 0.2145 0.60272 -0.2486 0.14995 -0.16917 -0.088788 0.34755 0.34252 0.56032 -0.62452 0.4472 -0.52409 -0.30649 0.17998 0.31539 0.039367 -0.84186 -0.69837 -0.056351 -0.099436 -0.46369 -0.33527 0.054415 -0.39718 -0.25121 -0.59982 -0.035794 0.27358 -0.1263 0.41421 -0.048409 -0.077921 0.20472 -0.20699 -0.19035 -0.10534 -0.21229 -0.58974 0.08069 0.18711 0.046569 -0.31559 -0.095357 0.056041 0.012741 0.01044 0.17638 -0.1304 0.66634 -0.15641 -0.5017 0.090039 -0.060656 0.16431 -0.063102 0.29124 0.37584 0.14346 0.049853 0.18188 0.29145 0.48077 0.39747 -0.10213 -0.0099213 -0.40237 0.4643 0.066029 -0.29767 -0.088084 -0.47519 0.21554 -0.036575 -0.45219 -0.13152 -0.081816 0.3187 -0.11394 -0.013412 -0.092017 0.0595 0.34798 -0.32701 -0.1033 0.2451 
these -0.31049 0.33736 -0.38775 -0.22381 -0.43884 -0.095633 0.19155 0.028059 -0.055722 0.095713 -0.080456 0.028913 0.11339 -0.27722 0.18393 0.003575 0.037968 -0.015659 0.33573 -0.24739 0.21591 0.082671 0.27199 -0.063152 -0.1993 0.060267 0.20927 0.21878 0.35489 -0.094807 -0.026894 -0.036206 -0.19079 -0.20301 0.0062663 -0.089873 -0.081881 0.067155 -0.16462 0.068707 -0.34153 -0.18619 -0.010763 -0.024733 0.14463 -0.27402 0.10435 0.37097 0.050518 -0.48062 0.097824 0.080341 -0.26472 -0.3508 0.1383 0.12352 -0.3195 0.036814 -0.19902 0.18631 0.20941 -0.10813 0.031589 0.20418 -0.32366 -0.19893 0.28553 0.16569 0.067127 -0.12748 0.013017 0.37956 0.10407 0.17493 -0.41241 0.10352 -0.12363 -0.087032 0.15638 -0.36778 -0.27098 0.0057037 -0.1964 -0.059616 0.42735 0.0028885 0.28003 0.042258 -0.16711 -0.11345 -0.39601 0.25396 0.14201 0.22498 -0.26146 -0.32268 0.5376 -0.065418 -0.40697 0.19092 
than 0.043219 -0.008367 -0.39399 0.011538 0.26287 -0.19636 0.057441 -0.068772 -0.14144 -0.18527 0.371 0.43273 0.36517 -0.13254 0.19503 -0.19519 0.19483 0.4077 -0.012229 -0.19765 -0.020296 -0.084921 0.041727 0.10923 -0.023929 0.19345 -0.3227 0.025653 0.32017 0.20643 0.55368 -0.21322 0.19746 -0.03234 0.01701 -0.35878 -0.16231 0.27798 -0.38291 0.051936 -0.089741 -0.33319 0.21334 0.34734 0.094841 0.15795 -0.12944 -0.59609 0.11187 -0.23284 -0.44585 -0.20962 -0.17577 -0.18899 0.37438 0.10822 -0.10899 0.10806 -0.014586 -0.34323 0.32137 -0.32034 0.086323 0.11984 -0.18184 -0.017118 0.044104 0.11701 0.28134 0.35734 -0.32511 0.012764 0.1676 0.11063 -0.61599 0.51919 -0.44111 -0.19398 0.30785 -0.33941 -0.44658 0.1362 -0.09997 0.10384 0.50144 -0.09393 0.14638 0.32838 -0.16913 0.30094 -0.29218 0.25964 0.12747 -0.056703 -0.1863 0.0054695 0.11405 -0.39507 -0.12749 -0.25199 
study -0.18241 0.057934 0.091704 -0.15384 -0.38477 0.22601 -0.23811 0.018924 0.15238 0.099953 -0.011271 -0.056945 0.02518 -0.068559 -0.01021 -0.02167 0.014588 0.031169 0.21491 -0.13315 -0.07757 0.24071 0.35761 -0.18475 -0.63458 -0.17132 0.032943 -0.43057 0.24332 0.07286 0.12052 -0.18847 -0.40479 0.43602 0.094834 -0.20506 -0.12989 0.30767 -0.13288 -0.2645 -0.61897 0.077687 0.11336 0.31259 -0.46689 -0.22186 0.44256 0.1793 -0.079559 -0.20648 0.13316 0.23564 -0.70574 -0.43951 0.59017 0.038525 -0.35678 -0.04592 -0.0096653 0.44122 0.020829 -0.044029 -0.20455 -0.16622 0.24943 -0.028625 0.061845 -0.104 0.052589 0.061813 -0.053278 -0.21495 0.64425 -0.2661 0.20146 -0.22992 -0.13121 -0.027198 0.18079 -0.35465 0.028826 0.16907 0.0028936 -0.23305 -0.041754 -0.32762 0.25846 0.11678 -0.14368 -0.17891 -0.42445 0.45656 0.53238 0.32022 -0.36524 -0.20847 0.67873 -0.72399 0.099435 0.15785 
also -0.11672 0.10894 -0.055459 -0.092149 -0.1886 -0.0022881 0.33825 0.18422 0.0074021 -0.049453 -0.020654 0.17826 0.063628 0.046328 0.23655 -0.1658 0.020442 -0.078062 0.16097 -0.025986 0.065845 -0.19066 0.25761 -0.032332 -0.33562 -0.084975 0.027021 0.086526 0.38554 -0.080002 0.044699 -0.18898 -0.33775 -0.03431 0.077679 -0.11545 -0.27772 0.31397 -0.52864 -0.0014915 -0.15421 -0.1506 0.090003 -0.061731 0.20234 -0.17403 0.06414 0.2933 -0.081943 -0.30419 -0.15292 0.16017 -0.10672 -0.1448 0.1516 0.10439 -0.34743 -0.14493 -0.26621 0.19766 0.26351 -0.05906 0.027689 0.095522 -0.092306 -0.25863 0.042195 -0.042166 0.15524 -0.088798 -0.090647 0.11019 0.1182 -0.033341 -0.11349 0.23232 -0.20406 -0.17499 0.066387 -0.27515 -0.11054 0.072433 0.027331 -0.08599 0.21535 0.089218 0.1031 0.024278 0.052109 0.17869 -0.29292 0.32707 -0.072789 -0.10175 -0.30845 -0.22802 0.074389 -0.089721 -0.33353 0.036275 
may -0.49162 0.39329 -0.36217 -0.26008 -0.02982 0.19992 0.40202 0.16502 0.028203 -0.52782 -0.1169 -0.18866 0.25076 -0.13734 0.028527 -0.16909 0.50792 -0.1028 0.021864 0.19578 0.20322 0.044896 0.18247 0.21188 -0.48332 0.42724 -0.16146 -0.019955 0.083532 -0.24452 0.22189 -0.060433 -0.053798 -0.047581 0.022559 -0.020657 -0.31435 0.12126 -0.34279 0.20344 -0.19973 -0.42332 -0.11315 -0.31387 -0.089903 -0.022076 -0.041547 0.24973 0.029136 -0.4439 0.087918 0.18385 -0.20727 -0.1562 0.51136 -0.30973 -0.47125 -0.06398 -0.33643 0.17934 0.15782 -0.33336 0.017293 0.38553 -0.47165 0.18593 -0.17205 -0.099425 0.087409 -0.20963 0.22013 -0.16307 0.52894 -0.11807 0.012306 0.21914 -0.08091 -0.28451 0.42697 -0.29817 -0.51816 -0.022031 0.078741 -0.54285 0.37871 0.17587 -0.023718 -0.087521 0.24139 0.13908 -0.34003 -0.041743 0.053942 0.34888 -0.58751 -0.047454 0.1971 0.13434 -0.45231 0.42425 
A -0.32239 -0.40292 -0.015506 0.3361 0.030507 0.16075 0.0506 0.079248 -0.092155 -0.061726 0.011509 0.084358 -0.080912 -0.044284 0.0029781 -0.14944 -0.074012 -0.18263 0.23764 0.18309 0.0043808 -0.31782 0.013936 -0.02121 -0.69117 -0.078109 -0.089651 0.093953 0.30815 -0.029956 0.23396 -0.047107 0.015139 0.55386 -0.046133 0.13656 -0.33522 0.50556 -0.34254 0.0036442 -0.31657 0.1149 0.54482 0.29667 0.20113 0.29684 0.3296 -0.19568 -0.23426 0.12711 0.049245 0.20348 -0.70008 -0.019268 0.24234 -0.21268 -0.22724 -0.44443 -0.28854 0.075551 -0.090338 -0.2413 -0.10137 -0.4366 0.53462 -0.1562 -0.097758 -0.26833 0.37091 0.2393 -0.572 0.1049 0.32807 -0.38059 0.08896 -0.1454 0.30413 0.41753 -0.029542 -0.12007 -0.10493 -0.0056473 0.035699 0.59431 0.26099 -0.37851 0.010562 -0.25828 -0.23431 -0.12817 -0.36079 0.66533 0.67196 0.13931 -0.53411 0.063811 0.39538 -0.38573 0.059578 -0.24667 
gene 0.20899 0.2443 -0.28221 0.078963 0.096304 0.46367 0.25858 0.25558 -0.25848 0.37814 -0.36801 -0.33211 0.18464 0.36547 -0.012268 -0.034592 0.085774 -0.08391 0.72351 0.2073 0.55435 -0.43926 -0.22046 0.30302 -0.22506 0.076387 -0.39064 -0.025008 0.20551 -0.30278 0.2777 -0.33637 -0.40507 -0.155 0.1373 -0.13462 -0.95038 0.065651 -0.72129 -0.27995 -0.78588 -0.02765 0.49158 -0.012662 -0.019391 0.26972 0.24066 0.29555 -0.20263 -0.70316 -0.07304 -0.060134 -0.30982 0.26697 -0.057826 0.27828 -0.26504 -0.11273 -0.36166 -0.032117 -0.12225 -0.33785 0.092825 0.18702 0.26136 -0.11289 0.10267 0.23592 0.26002 0.10329 0.021799 -0.12631 0.4703 -0.31711 -0.11395 -0.12709 0.054021 0.27984 0.59911 0.090765 -0.36168 0.32733 0.72998 -0.12607 -0.28399 0.18716 0.27949 0.0053063 -0.28563 -0.011341 -0.057409 0.049971 0.18916 0.053277 -0.33285 -0.41128 0.14687 -0.24054 -0.0075983 0.4695 
increased 0.10671 0.019393 -0.026808 -0.38032 -0.041968 0.0050371 -0.0095864 0.18493 0.018294 -0.28105 0.36473 0.29222 0.064023 -0.076491 0.21673 -0.2669 0.0010906 -0.070313 0.25895 0.087773 -0.02877 -0.069878 -0.13802 0.2911 -0.023274 0.10662 -0.2462 0.12896 0.23286 -0.36234 0.085017 -0.39023 -0.18188 0.29227 0.43653 -0.30262 -0.17249 0.47142 -0.62406 -0.14274 0.19086 -0.2344 0.1337 0.32282 0.22817 -0.29316 -0.14587 0.054609 0.18893 -0.075207 -0.36548 -0.081524 -0.0092134 0.12415 0.32984 0.3148 -0.39799 0.21498 -0.32018 0.027405 0.4264 -0.56938 0.058273 -0.071838 -0.083572 -0.22304 0.27809 0.017119 0.33221 0.05684 0.27321 -0.023556 0.16213 0.1377 -0.58437 0.30419 -0.21333 0.13163 0.22735 0.036123 -0.070511 0.17113 -0.12884 -0.2607 -0.065913 0.040048 0.010911 0.14768 0.20324 0.37687 0.020492 0.18386 0.044292 -0.31792 -0.33155 0.032375 0.035971 -0.61964 -0.20242 0.093587 
been 0.17919 -0.014834 -0.060872 0.034945 -0.47074 -0.068216 0.49524 0.18542 0.20852 -0.51255 -0.33188 0.051882 0.40194 0.14116 0.095914 0.0078268 0.34926 -9.6186e-05 0.11062 -0.3317 0.42548 -0.17008 0.32312 -0.3416 -0.53758 -0.057691 0.29658 -0.15898 0.54804 -0.0018771 0.35157 -0.19488 -0.48674 -0.43429 0.15813 0.038718 -0.32973 0.42215 -0.54813 0.30629 -0.56383 -0.52913 0.34237 -0.052976 0.17679 -0.073623 0.23098 0.35558 -0.047362 -0.1494 -0.005279 0.17113 -0.21454 -0.1365 0.043632 0.014688 -0.45268 -0.49785 -0.10494 -0.11666 0.5306 0.089139 0.10782 0.62161 -0.38046 -0.53131 0.35293 0.043432 -0.10473 -0.41441 0.042663 -0.066032 0.55212 -0.355 0.40503 0.11804 -0.11306 0.071163 0.15951 -0.14438 -0.27442 0.29699 0.21473 0.1836 -0.19743 -0.029547 -0.17176 -0.26059 -0.19852 0.21143 -0.12126 0.2811 -0.13219 -0.064561 -0.21636 0.18438 -0.044907 -0.057036 0.055606 0.32813 
activity -0.038478 0.51883 0.25265 -0.30407 -0.34526 0.24648 0.26035 0.10463 -0.32624 -0.1874 -0.32305 0.60302 -0.28423 0.13131 -0.030548 -0.24582 0.58459 -0.11058 -0.29299 0.026118 0.10232 -0.45242 0.10365 0.17045 -0.14629 -0.16124 -0.10768 0.23624 0.31468 -0.077201 0.068018 -0.52574 -0.81159 0.095119 -0.084372 0.0074262 -0.66973 0.41128 -0.69851 -0.22202 0.049281 -0.45277 0.53068 0.3326 0.19243 -0.3132 0.18696 0.24836 -0.061038 0.00051007 0.43974 0.035271 -0.11953 0.10716 -0.17823 0.091207 -0.3929 0.54628 0.025118 0.028785 0.012882 -0.12444 -0.14119 0.073709 0.18609 -0.07782 -0.29248 -0.20555 0.059996 0.41786 -0.025152 -0.18955 0.19314 0.094237 -0.45657 0.52575 0.0042299 -0.022094 -0.12556 -0.12128 -0.56529 0.020837 -0.18892 0.18437 -0.12847 -0.015898 0.079307 0.27322 0.2114 0.17622 -0.37907 0.29245 -0.085964 0.13954 -0.014726 -0.018097 0.25259 -0.32465 0.00067481 -0.043616 
has 0.30641 -0.086061 0.070001 0.16691 -0.33085 0.12877 0.39895 0.1939 0.10456 -0.47048 -0.17882 0.044359 0.16198 0.17096 -0.045416 0.021541 0.31779 -0.11275 0.020756 -0.18122 0.30218 -0.24375 0.44147 -0.32999 -0.54683 -0.011162 0.13958 -0.2932 0.32129 0.059602 0.13203 -0.27219 -0.44928 -0.32312 0.1274 -0.018855 -0.35617 0.41625 -0.62076 0.38741 -0.33758 -0.65967 0.28191 0.12757 0.06314 0.11568 0.21109 0.27918 -0.041289 -0.014463 -0.063948 0.2125 -0.40597 -0.15823 0.023871 -0.015283 -0.41667 -0.35774 -0.051523 -0.13173 0.40454 0.0096682 0.10101 0.48546 -0.17154 -0.29302 0.12301 0.086726 -0.0028776 -0.45166 0.05432 -0.28376 0.57174 -0.56929 0.20764 0.2863 -0.00081888 0.18674 0.19737 -0.12642 -0.22647 0.44186 0.16696 -0.006536 0.021777 0.14996 -0.18065 -0.12475 -0.052429 0.18371 -0.18871 0.38548 0.02297 -0.0584 -0.27014 0.038242 -0.032781 -0.13103 0.051282 0.20965 
both -0.15786 0.052996 -0.29328 -0.09348 -0.14159 -0.14376 0.20037 0.14543 0.012025 0.075719 0.011582 0.062804 0.083541 -0.032517 0.1274 0.012753 0.31578 -0.055765 -0.047102 -0.08315 0.044344 -0.067922 0.12978 0.009654 -0.14361 0.025881 -0.002873 0.13964 0.23368 0.0095946 0.13499 -0.067101 -0.25353 0.14096 0.00032385 -0.19722 -0.40598 0.24185 -0.35976 -0.19195 -0.042213 -0.019764 -0.070629 -0.060731 0.20962 -0.21125 0.256 -0.052483 -0.075236 -0.27106 -0.1066 0.069166 -0.083709 -0.11901 0.020504 0.19887 -0.24869 0.023356 -0.25878 -0.045322 0.23056 -0.16662 0.0046721 0.11787 -0.037431 -0.12439 0.19553 0.013512 0.20776 0.011636 -0.12421 0.184 0.061214 0.1571 -0.35252 0.49148 -0.17787 -0.12643 0.090617 -0.19264 -0.36978 0.16378 -0.18491 0.021351 0.29926 -0.12465 0.1789 0.070544 -0.095123 0.14392 -0.3982 0.23392 -0.073672 -0.09741 -0.24492 -0.15993 0.22413 -0.11212 -0.28519 0.14174 
results -0.34607 -0.078778 -0.22452 -0.20973 -0.14007 0.0040431 0.27457 0.16947 -0.26601 0.023753 0.13013 -0.046363 -0.16822 -0.011053 -0.097175 -0.23851 0.04134 -0.0046547 0.47211 0.020327 0.23033 0.063159 0.37016 -0.29111 -0.37939 -0.10574 -0.081578 0.055106 0.34571 -0.097538 0.026574 -0.25249 -0.35569 0.27327 -0.026379 -0.11419 -0.12145 -0.07445 -0.2319 -0.37308 -0.052678 -0.14172 -0.15461 0.26242 0.0018805 -0.09823 0.20339 0.28155 0.042184 -0.1319 -0.036234 -0.074767 -0.24112 -0.2258 0.16192 -0.061498 -0.47085 -0.06836 0.12303 0.18758 0.033874 -0.032799 0.035739 -0.11487 0.13261 0.21393 -0.24629 -0.12989 0.24695 -0.12648 -0.25519 -0.061163 0.48221 -0.044081 -0.14452 0.072123 -0.22452 -0.36604 0.31153 -0.47302 -0.18656 -0.011182 -0.16178 -0.35545 0.42003 0.19689 0.45954 -0.010419 -0.092156 0.1685 -0.47259 0.36831 -0.1093 0.038416 -0.571 -0.41714 0.5698 -0.47053 -0.37732 0.085182 
significantly 0.099111 0.12293 -0.26062 -0.21207 0.18969 -0.21462 0.2533 -0.0887 0.18792 -0.25264 0.60159 0.47641 0.23987 0.10141 0.057572 -0.1882 -0.010038 0.060172 0.080611 0.15904 0.13428 -0.013177 -0.10822 0.043693 -0.065329 0.09971 -0.30645 -0.18917 0.50971 -0.0954 0.22982 -0.19967 -0.28895 0.30789 0.43271 -0.33292 -0.41576 0.50281 -0.70861 -0.21373 0.13458 -0.11027 0.008523 0.16347 0.17196 -0.14423 -0.075812 -0.15402 -0.0060602 -0.45166 -0.35312 -0.12226 0.26749 0.080289 0.18462 0.24363 -0.27029 0.032542 -0.51507 -0.050533 0.4802 -0.31868 0.0070872 0.012889 -0.29118 0.045435 0.29216 -0.18578 0.41449 0.57122 -0.052016 0.099851 0.038166 -0.069066 -0.30985 0.23431 -0.30827 -0.2247 0.055458 -0.36313 -0.14589 0.18271 -0.19645 -0.19438 0.10647 -0.00021325 0.15617 0.31996 0.063509 0.51211 -0.033025 0.058164 0.05081 -0.024285 -0.36829 -0.14159 -0.041917 -0.55113 -0.46361 -0.12447 
= 0.63052 -0.12584 -0.43889 0.14088 0.47414 0.097125 0.3312 0.64624 0.10917 -0.056924 0.52934 0.27722 0.23718 0.041284 0.24019 0.076947 0.35725 0.30686 0.17583 -0.092836 0.11224 -0.040588 -0.6452 0.092019 0.073891 0.23831 0.2703 -0.67053 0.23007 -0.39859 0.48596 0.11528 0.1114 -0.25325 -0.43613 -0.49672 -0.32764 0.81244 -0.19858 -0.88136 -0.033162 0.6382 0.17559 -0.23443 -0.099326 -0.39549 -0.49346 -0.20915 0.2098 -0.10073 -0.11375 -0.16697 0.057091 -0.24502 0.70759 0.26253 -0.53058 0.24294 -0.070333 -0.22664 0.90255 0.26907 0.25433 0.35864 -0.26472 0.54078 0.05458 -0.68136 0.38528 0.20409 -0.45027 -0.37779 0.36732 -0.10108 -0.11405 0.49832 -0.14661 -0.28142 -0.63685 0.0924 -0.35569 0.088977 0.14123 0.61878 0.81039 -0.12208 -0.29684 -0.30359 -0.46825 0.47279 -0.14603 0.3481 0.62214 0.22823 -0.56427 -0.24298 0.1943 -0.94599 0.20164 -0.38702 
using -0.0047753 0.059152 -0.20651 0.10409 -0.24961 0.095123 0.21395 0.025142 -0.17125 0.13939 0.047157 -0.47986 -0.19018 0.56985 0.2831 -0.11564 0.52283 -0.45465 -0.032763 -0.32506 0.068209 0.15698 -0.32966 -0.42865 -0.68125 0.10663 0.12096 -0.089822 0.29533 0.028983 0.28419 -0.10379 -0.22259 0.20668 0.019955 0.11034 0.038529 0.1131 -0.46735 -0.11835 -0.5119 0.21009 0.049935 0.10197 0.60432 -0.65695 0.77069 -0.30018 -0.011829 -0.13096 0.074546 -0.17473 -0.2517 0.072626 -0.019704 0.21629 -0.41454 -0.14093 0.10234 0.033596 0.13819 -0.068944 -0.069354 0.15731 0.081643 0.10167 0.53902 -0.13443 0.52342 0.15072 -0.32868 0.1601 0.23277 -0.067659 0.29692 0.30817 -0.096619 0.038092 -0.013612 -0.23228 -0.010187 0.1618 0.055696 0.15044 -0.24195 -0.12305 -0.043406 -0.57325 -0.31945 0.062533 -0.3757 0.19114 0.037852 -0.083741 -0.22518 0.038755 0.13996 -0.49615 -0.20545 0.1266 
This -0.36251 -0.21991 0.25646 0.096224 -0.036725 0.50142 0.003541 0.099809 0.069835 -0.20469 0.073832 0.12907 -0.03201 0.091096 -0.10487 -0.23493 0.052373 -0.13584 0.23372 -0.027341 -0.22249 -0.19745 0.70911 -0.1824 -0.41998 -0.10487 -0.44358 -0.0017314 0.0056594 0.1495 0.11275 0.074041 -0.33659 0.39696 -0.13129 0.14839 -0.023805 -0.049958 0.0055946 -0.22371 -0.28255 -0.19706 0.25297 0.16838 0.0052448 -0.15667 0.37985 0.40868 -0.070879 -0.18118 0.10674 0.027005 -0.53578 -0.26444 0.65403 -0.061202 -0.28074 -0.3097 0.08547 0.4027 0.048969 -0.30361 -0.12192 -0.36806 0.67599 -0.085723 -0.16285 0.068623 -0.00798 -0.27389 -0.42085 -0.34665 0.64011 -0.24836 -0.24685 0.050631 -0.30813 0.079846 0.14746 -0.35366 -0.34563 0.21917 -0.02102 -0.23535 0.29899 -0.31863 0.22741 -0.095 -0.2328 0.041651 -0.40093 0.50118 0.51278 0.27586 -0.49751 -0.18592 0.52348 -0.39026 -0.18949 -0.050796 
associated 0.071978 -0.0068216 -0.67214 -0.19463 0.020709 0.20128 -0.2035 0.41776 -0.0016624 -0.40315 0.27265 -0.15597 0.37697 -0.23338 0.22369 -0.16941 0.13692 -0.18704 0.18808 0.22321 0.15526 -0.092976 -0.10473 0.06622 -0.46636 0.16657 -0.2873 0.0085728 0.14549 -0.48751 0.12255 -0.30128 -0.46618 0.25931 0.36351 -0.12815 -0.35887 0.27815 -0.74872 0.01614 -0.14832 -0.2282 0.032846 0.03051 -0.016043 -0.031847 -0.29463 0.26216 0.26629 -0.16786 -0.024392 -0.23516 0.15666 -0.061932 0.34841 -0.048623 -0.24446 -0.10567 -0.71573 0.053875 0.40593 -0.26268 0.083405 -0.038194 -0.18597 -0.2572 0.33373 0.10538 0.13424 -0.037091 0.0081875 -0.0036828 0.30483 0.085102 0.24662 0.41913 -0.12898 -0.16694 0.40901 0.40517 -0.2808 0.20661 0.048177 -0.11303 0.043262 -0.18041 -0.23106 -0.056319 0.071707 0.21195 -0.0050748 0.17624 0.25044 -0.033514 -0.46716 -0.10064 0.084514 -0.42898 0.066809 -0.090703 
effect 0.34231 0.18078 0.22304 -0.34552 -0.19466 -0.091661 -0.40287 -0.095002 0.12267 -0.17779 0.092759 0.0867 -0.37502 0.036126 0.055156 0.045164 0.19292 0.10203 0.029144 -0.14055 0.066215 -0.28989 0.45869 0.093248 -0.57856 -0.22621 0.17964 -0.06372 0.32405 0.084689 0.26557 -0.18136 -0.72561 0.032997 0.2029 -0.09574 -0.29065 0.011633 -0.56579 0.051549 -0.23332 0.079293 0.10965 0.013099 -0.54689 -0.32079 0.20399 0.42811 -0.027641 0.0022705 0.066801 0.058725 -0.59837 0.07047 0.086365 -0.097396 -0.19138 -0.13439 -0.16967 0.53474 0.61354 -0.32271 0.069243 0.016107 0.12149 0.16247 -0.28387 0.027811 0.42761 0.32621 0.24791 -0.084936 0.29222 -0.35166 -0.26306 0.4768 0.11471 0.25394 0.048685 -0.12547 -0.31896 -0.22327 -0.26088 -0.0083436 -0.12078 -0.17978 0.17504 0.099056 0.2482 0.2973 -0.53588 0.17312 -0.025281 0.42192 -0.45319 -0.15928 0.013203 -0.4078 -0.24156 -0.13077 
treatment 0.049628 0.0036004 0.41269 -0.31709 -0.35714 0.033124 0.33643 -0.13419 -0.1844 -0.096435 0.033248 0.3075 -0.17614 -0.3655 0.090048 0.50176 0.23789 -0.29051 0.0084395 -0.13403 0.30954 0.06216 -0.0018825 0.052706 -0.52503 0.47324 0.080902 -0.13027 0.06239 0.2039 0.12639 -0.21333 -0.31488 0.59756 0.50922 -0.1801 -0.49845 0.22941 -0.41207 -0.059603 -0.095958 -0.1035 0.33543 0.56067 0.097841 -0.1559 -0.00406 0.23845 0.22897 -0.17482 0.068395 0.19209 -0.64813 -0.058045 0.27163 0.091253 -0.041594 -0.4572 -0.44064 -0.12692 0.31897 -0.42907 -0.02852 -0.050486 -0.28327 0.33907 0.21564 0.15782 0.053913 0.35744 0.07137 -0.030268 0.08081 -0.17489 -0.12361 0.24921 -0.4958 0.084058 0.35125 -0.064634 -0.11647 -0.30454 -0.040401 0.014837 0.30938 0.25788 -0.10511 -0.11456 -0.061302 0.2197 0.14286 0.11429 0.0039651 0.69134 -0.18354 -0.56193 0.050794 -0.58328 -0.31192 0.13 
during 0.008559 -0.15105 -0.059161 -0.38708 -0.2953 0.082713 0.17813 0.077835 -0.02667 -0.10916 -0.0053147 0.14925 0.16447 0.10337 -0.19829 0.18509 0.41676 -0.38337 0.18842 -0.17051 -0.12234 0.28016 -0.34368 -0.033387 -0.10703 0.2163 -0.15618 -0.083814 -0.32426 -0.321 -0.049269 -0.11146 -0.40497 0.63994 0.084754 -0.41257 -0.21054 0.56401 0.063276 0.10615 -0.081423 -0.053757 0.6899 -0.38104 0.085369 0.071374 0.29756 0.087716 -0.21922 0.14204 -0.15361 0.35256 -0.30548 -0.18678 -0.33625 0.060039 -0.18017 -0.15193 -0.24557 0.28501 0.20487 -0.18119 0.092413 -0.070829 -0.14323 -0.5046 0.14377 -0.16269 0.051891 -0.094319 0.38928 0.3345 0.59088 0.2666 0.14424 0.51236 -0.49853 -0.18215 0.099734 -0.2284 -0.31067 0.084762 -0.00623 -0.16159 0.056325 0.12661 0.32146 -0.070211 -0.038155 0.80808 -0.49309 0.0042475 0.49614 -0.0030596 -0.34083 0.16867 0.18366 -0.50552 -0.021948 0.40008 
role -0.42226 -0.075947 -0.27693 -0.25035 -0.51145 -0.038472 0.1472 0.4948 -0.11915 -0.39889 -0.32922 -0.011291 0.12108 -0.39789 0.11523 -0.16727 0.47487 -0.10516 -0.010945 -0.00030669 0.0061121 0.17772 0.6597 0.47296 -0.5504 0.12823 0.068306 -0.18806 0.13348 -0.34873 0.2094 -0.38179 -0.68159 0.031617 0.079859 -0.64921 -0.43364 0.16319 -0.045489 0.49857 -0.61137 -0.14575 -0.040003 -0.1208 -0.60544 -0.22368 0.56208 0.60034 0.071025 0.16691 -0.0018244 0.45943 -0.14873 -0.38275 0.15595 0.15418 0.20823 0.1748 0.02233 0.525 0.33939 -0.48466 -0.29165 0.36222 -0.088489 0.017959 -0.093024 -0.17139 0.30053 -0.2261 0.35215 -0.38925 0.91974 -0.13865 0.14461 0.13521 0.53362 0.13837 0.36879 0.18315 -0.37856 0.20752 0.17916 -0.43629 -0.16376 0.42615 0.41195 0.16924 0.17892 0.20054 -0.20679 0.33181 0.17064 0.084505 -0.4218 -0.058716 0.1587 -0.38566 -0.38436 0.25816 
its -0.079897 0.25401 -0.026275 0.049058 -0.43767 0.21641 -0.19053 0.22989 -0.01434 -0.2239 -0.039531 0.3171 -0.42114 0.42131 0.19405 -0.01981 0.18084 -0.17884 -0.21982 -0.20001 0.075499 -0.15393 0.50298 -0.17466 -0.40443 0.19145 -0.11464 0.045782 -0.25275 -0.19022 0.017464 -0.16886 -0.57522 0.0090125 0.02949 -0.28223 -0.45374 0.38623 -0.34379 0.22928 -0.32052 -0.324 0.06256 -0.026449 -0.030242 -0.022474 0.039149 0.3439 -0.26854 -0.14566 0.21408 0.2275 -0.37591 -0.16889 0.10895 0.0023509 -0.29258 0.22118 -0.20067 -0.01819 0.28822 -0.19446 0.074468 0.37157 -0.035965 0.17602 -0.048456 0.37735 0.21684 -0.010487 0.2997 -0.04551 0.45527 -0.33009 -0.17391 0.36501 0.17188 0.41148 0.00091151 -0.078268 -0.35416 0.60917 0.13693 -0.30428 0.24476 -0.19368 -0.06053 0.12356 0.10638 -0.024779 -0.17767 0.39144 0.30634 0.048721 -0.15764 -0.079039 -0.15705 0.11508 -0.19639 0.29597 
These -0.64809 -0.22476 -0.30028 -0.28536 -0.019753 0.067824 0.51422 0.091409 -0.25045 -0.16902 0.061519 0.00025295 0.18225 0.041778 -0.099326 -0.26466 0.30012 -0.12615 0.3185 0.12156 0.19052 -0.17936 0.23941 0.016774 -0.2164 0.14819 -0.25826 0.39588 0.51623 -0.040542 0.1997 0.025748 -0.27207 0.21733 -0.23786 -0.12108 -0.030799 -0.15465 0.126 -0.38326 0.15657 -0.3504 -0.0067961 0.087281 0.17255 -0.2141 -0.0059134 0.41831 -0.0091252 -0.26533 0.04044 0.0018804 -0.11631 -0.13811 0.36547 -0.13403 -0.37694 -0.24296 -0.10412 0.16801 0.12461 -0.22917 0.20424 -0.21357 0.1132 0.088526 -0.2594 -0.096213 -0.084314 -0.2255 -0.3206 0.010085 0.47438 0.15989 -0.30005 -0.16084 -0.11966 -0.43651 0.22816 -0.73105 -0.28847 0.16117 -0.179 -0.40258 0.42377 -0.10593 0.61129 0.039782 -0.13051 0.12015 -0.41612 0.48641 0.0074867 0.18892 -0.6713 -0.42802 0.64002 -0.23411 -0.71268 -0.13739 
effects 0.21488 0.41743 0.034154 -0.49769 -0.23514 -0.108 -0.3217 -0.060171 0.12359 0.0010017 0.003683 -0.16852 -0.15552 -0.32576 0.24533 0.10196 0.3219 0.067631 -0.12726 -0.32176 0.16631 -0.13583 0.45441 -0.12039 -0.45573 -0.21489 0.31327 -0.094284 0.37195 0.042286 0.34217 -0.229 -0.77837 0.047424 0.17501 -0.19011 -0.38077 -0.2121 -0.33489 -0.032311 -0.18772 0.10132 0.094468 0.066621 -0.46558 -0.43961 0.15655 0.48494 -0.028394 0.068661 0.1583 0.23308 -0.77687 0.14568 0.070759 -0.28812 -0.20045 -0.21987 -0.37146 0.42363 0.56581 -0.28199 0.048583 0.13207 -0.014553 0.031282 -0.038263 0.1115 0.28442 0.27892 0.2593 0.055648 0.30817 -0.33213 -0.01741 0.31036 0.085239 0.24647 0.0040883 -0.2878 -0.45908 -0.28999 -0.23081 -0.12698 -0.22217 -0.17829 0.23062 0.034887 0.23858 0.13181 -0.5753 0.28844 -0.24584 0.40477 -0.58056 -0.063717 0.0058602 -0.37048 -0.35144 -0.0041351 
receptor -0.37787 0.24762 0.09891 -0.59574 -0.054118 -0.0079903 0.0050493 0.55677 -0.11632 0.20043 -0.077717 0.3919 0.22006 -0.11377 0.1217 0.76887 0.028248 -0.36724 0.43356 -0.43021 -0.042143 0.1334 0.024144 -0.2295 -0.62202 0.18096 -0.67925 -0.10577 0.25729 -0.66106 0.059999 -0.23992 -0.65326 -0.11069 0.30747 -0.14226 -0.63962 -0.04042 0.021987 -0.014361 -0.66214 -0.452 -0.49077 0.040437 0.51649 0.5802 0.5456 0.31394 -0.31302 -0.30704 -0.37721 -0.12372 -0.49387 0.60284 0.41895 0.56606 -0.39885 0.10764 -0.30906 -0.26163 0.87601 -0.73566 0.32876 0.33694 0.18767 0.32594 0.23025 -0.22614 0.037612 -0.036651 -0.0015889 -0.2527 0.19949 -0.35239 0.16838 0.53358 0.33469 0.65219 -0.31878 0.10767 -0.33452 0.094476 0.49194 0.15072 0.40058 -0.12501 0.75649 -0.18426 -0.045454 -0.43922 -0.30299 0.48158 -0.011593 0.026163 -0.24067 -0.11241 -0.38441 0.18134 -0.17886 -0.23238 
showed 0.13155 0.15652 -0.62187 -0.065738 0.0045589 -0.11418 0.14641 -0.12784 -0.35181 -0.023104 0.1593 -0.082399 0.1079 0.096 -0.17441 -0.053462 0.12254 -0.10693 0.36308 0.21094 0.2141 -0.17856 -0.11537 -0.26804 -0.5195 -0.17421 -0.096887 0.19588 0.47053 -0.30587 -0.14808 -0.20326 -0.15696 0.028817 0.2872 -0.30522 -0.11795 0.25043 -0.86909 -0.1998 0.27114 0.041288 0.044219 0.29407 -0.12799 -0.26404 0.24575 -0.15606 -0.18788 0.039939 -0.19589 -0.11066 -0.22342 -0.086656 0.16948 0.27074 -0.50155 0.02867 -0.15073 -0.19264 0.079404 0.069963 0.22514 -0.080215 -0.10568 -0.00035338 0.094353 0.10178 0.41015 0.14902 -0.36452 0.1491 0.34328 0.038327 -0.088579 0.34361 0.13731 -0.090226 0.14533 -0.5618 0.0017865 0.39253 -0.42747 -0.03812 0.23671 0.037287 0.19328 0.038842 0.14788 0.02717 -0.28223 0.19768 0.20867 -0.25165 -0.3618 -0.087937 0.35759 -0.36633 -0.080318 -0.51504 
two -0.16562 0.1937 -0.5347 0.14452 -0.17066 -0.2998 0.032766 0.19062 -0.054907 -0.03499 -0.23055 -0.091724 -0.0065119 -0.22667 0.013933 0.13512 0.39445 -0.10726 0.10902 -0.25251 0.33224 -0.053265 0.27557 -0.050792 0.084062 -0.023652 0.33613 0.18843 0.29978 -0.10533 0.1904 0.12044 -0.33347 0.28036 0.023767 -0.019069 -0.49687 0.16025 -0.079282 -0.13278 -0.52894 0.168 0.041781 -0.072555 0.087777 -0.11155 0.50089 -0.1059 -0.284 -0.27604 0.050683 -0.082228 -0.21339 -0.071249 0.046648 0.18029 -0.23355 -0.035582 -0.22826 -0.035218 0.44667 0.042751 0.1863 0.029279 -0.23817 -0.35513 0.18815 0.16504 -0.09334 0.14464 -0.32187 0.041169 -0.081864 0.18528 -0.11237 0.1041 -0.11599 0.030657 -0.060841 -0.11302 -0.29515 0.32935 -0.36227 0.48484 0.48006 -0.24124 0.058254 -0.2505 -0.32354 -0.065754 -0.26014 0.20214 0.41829 -0.16554 -0.10538 -0.46581 0.54088 -0.090987 -0.31922 0.49867 
found 0.19225 0.10757 -0.54267 -0.038095 -0.098951 -0.17076 0.07152 0.060315 -0.065634 -0.038209 -0.082738 0.10865 0.12368 0.19933 0.1897 -0.085812 0.074949 0.14069 0.31051 -0.16167 0.24925 -0.10003 0.25874 -0.17895 -0.3365 -0.021739 -0.1195 0.061672 0.62962 -0.10006 0.16652 -0.23234 -0.20912 -0.032173 0.23217 -0.18088 -0.12666 0.47105 -0.69773 -0.12186 -0.038168 -0.096592 0.18266 0.034543 0.024129 -0.023492 0.10194 0.2099 -0.15535 -0.30031 -0.13463 -0.1737 0.011497 -0.20536 -0.02503 0.22543 -0.49253 -0.23684 -0.15953 0.092005 0.15379 -0.13259 0.14672 0.057472 -0.050091 -0.10166 0.23396 -0.064759 0.12943 0.029556 -0.25749 0.13079 0.10685 0.050041 -0.0030746 0.28537 -0.11298 -0.024334 0.22668 -0.17978 -0.31472 0.2667 -0.20859 0.19458 0.072487 -0.043953 -0.0087038 0.20822 0.090256 0.031738 -0.14698 0.19943 0.20201 -0.19908 -0.29653 0.12415 0.40715 0.00083509 0.03162 -0.15521 
their -0.52076 0.53888 -0.22799 -0.14737 -0.37774 0.16736 -0.0024531 -0.10692 0.067716 -0.018377 0.029582 0.3138 0.1407 0.13493 -0.06454 -0.064095 0.15404 -0.027772 -0.16394 -0.24265 0.10782 -0.0549 -0.026394 -0.12093 -0.0090395 0.17603 -0.0081332 0.1767 0.11745 -0.01241 0.033617 0.018237 -0.3492 -0.22774 -0.23855 -0.3151 -0.27367 0.40964 0.086489 0.39439 -0.39864 -0.17714 0.30058 -0.093105 -0.059338 -0.39423 -0.019514 0.10859 -0.14475 -0.0059564 0.23913 -0.062782 -0.14746 -0.28038 0.20769 0.18705 -0.45922 0.2534 -0.4475 0.059087 0.46878 -0.26595 0.05452 0.66322 -0.19431 -0.17563 0.31808 0.46209 0.16395 0.043184 0.10374 0.22529 0.099713 0.036604 -0.2354 0.36964 0.036704 0.21219 0.0014627 -0.47436 -0.30109 0.37525 -0.06613 -0.11419 0.17957 -0.30577 0.12261 0.0063645 -0.045282 -0.14542 -0.37167 0.37912 0.20651 0.21086 -0.010526 0.030774 0.1764 0.086738 -0.3958 0.37052 
had 0.12583 -0.040819 -0.49302 -0.10706 -0.13427 -0.20142 0.22724 -0.26524 -0.064638 -0.2896 0.22362 0.40224 0.12971 -0.0145 -0.2475 0.035398 0.08146 -0.043282 0.095442 0.1632 0.29498 -0.10453 -0.30793 -0.17411 -0.25773 0.023195 0.10702 0.24947 0.56604 -0.14262 -0.0077058 -0.38819 -0.30439 -0.032648 0.2152 -0.24444 -0.10685 0.28997 -0.4949 0.31227 0.058333 0.14178 0.45438 0.2376 -0.4262 0.012542 0.025163 -0.16365 -0.23159 -0.099864 -0.16673 -0.21441 -0.18232 -0.0079974 0.27462 0.22984 -0.39283 0.14928 -0.47705 0.13141 0.68264 -0.27722 0.15597 0.29334 -0.13919 -0.070267 0.12067 0.15472 0.24 0.14181 -0.42233 0.014429 0.26094 -0.054233 -0.3688 0.31715 -0.057303 -0.14649 0.15906 -0.33627 0.08871 0.062459 -0.21747 0.38528 0.35589 -0.15827 -0.086504 0.076771 0.029231 0.094775 0.070122 0.051494 0.3901 -0.051932 -0.2721 0.28503 0.032946 -0.18258 0.14663 -0.50404 
compared -0.082311 0.077994 -0.34234 -0.078569 0.037796 -0.31937 0.083176 -0.12329 0.071307 -0.058149 0.4203 0.079349 0.17191 -0.042666 0.010895 -0.04432 0.14012 0.36397 -0.1094 -0.27072 0.15779 0.24765 -0.13923 -0.16582 0.069606 0.27502 -0.28055 -0.14754 0.34287 0.30104 0.43752 -0.44717 -0.13678 0.14062 0.080836 -0.31052 -0.26715 0.45326 -0.53151 -0.15151 -0.11265 0.02094 0.073914 0.48595 0.045833 -0.23557 -0.070617 -0.59533 0.048777 -0.1623 -0.2035 -0.16672 -0.15015 0.039374 0.072653 0.50987 -0.30532 0.052394 -0.18062 -0.26693 0.24016 -0.31951 -0.028572 -0.055737 -0.087178 0.091408 0.53529 0.0040667 0.48747 0.32905 -0.20638 -0.0065993 0.10191 0.28331 -0.34715 0.40637 -0.30459 -0.11046 0.40567 -0.38325 -0.26468 0.30913 -0.19712 -0.091692 0.24052 -0.2029 0.24125 0.030459 -0.1454 0.28988 -0.08231 0.070097 0.18769 -0.1459 -0.16293 -0.082215 0.035702 -0.57764 -0.14469 -0.22208 
cells. 0.8778 0.27305 0.18361 -0.2414 -0.59477 -0.27525 0.28532 0.33089 -0.71475 -0.29571 -0.18329 0.14705 -0.028187 0.18573 0.26829 -0.053858 0.33715 0.23374 0.28926 0.33235 -0.43679 0.060386 -0.1072 0.68745 -0.47998 0.62127 -0.88947 -0.47852 0.3903 0.04133 0.15682 -0.3118 -0.45114 0.31637 0.16112 -0.75573 -0.71058 -0.1451 -0.41987 0.25996 -0.33286 -0.08553 -0.25742 -0.097919 -0.023587 -0.58036 0.50658 -0.36683 0.045208 0.036312 -0.47527 0.03927 -0.080516 0.1259 -0.20422 0.33081 -0.97538 -0.24029 0.0097371 0.26812 -0.14651 -0.14147 -0.1444 0.039881 -0.27467 -0.51788 0.31761 0.20207 0.76674 0.11479 0.14754 0.41603 0.25558 -0.24749 -0.0039923 0.23928 0.63546 0.012818 -0.31986 -0.66417 -0.82558 -0.24192 -0.056116 -0.384 0.53289 -0.10383 0.10556 0.2996 -0.51008 -0.10293 0.08276 0.083786 -0.46942 0.21171 -0.34249 -0.18688 0.70559 0.24816 -0.020328 -0.068756 
can -0.3374 0.46448 -0.10897 0.047211 -0.29394 0.19115 0.54489 0.046066 0.08385 -0.43188 0.030301 -0.30184 0.13406 0.17145 0.28204 -0.011552 0.32952 -0.094754 0.25937 0.044147 0.31524 -0.14575 0.19011 -0.085839 -0.51824 0.20931 -0.007416 -0.11002 0.2001 -0.16453 0.099284 -0.076232 -0.10186 -0.019582 -0.028649 0.10345 -0.18524 0.21428 -0.077205 0.23437 -0.30317 -0.18127 0.0085296 -0.21857 0.44692 -0.24675 0.042792 0.13834 -0.024303 -0.48502 -0.090688 0.22702 -0.17559 0.071345 0.3566 -0.40086 -0.59515 -0.22795 -0.29578 0.25759 0.16581 -0.17376 0.037106 0.47578 -0.3397 -0.048564 -0.063188 -0.042397 0.12136 -0.027282 0.10646 0.13583 0.15552 -0.35531 0.077413 0.3729 -0.36678 -0.3623 -0.033601 -0.4053 -0.584 0.11355 0.11213 -0.30162 0.29669 0.1254 -0.33039 -0.30152 -0.0080066 0.13488 -0.37924 0.0048101 -0.055347 0.19101 -0.36761 -0.040781 0.067731 0.1728 -0.2155 0.51907 
cancer 0.059165 0.30495 -0.50763 -0.35712 -0.33432 0.54291 -0.4577 0.53203 -0.4957 -0.14885 0.059909 0.95024 -0.25563 -0.043587 0.38007 -0.0086291 0.59848 -0.21197 0.43186 -0.059048 0.2196 0.643 0.038937 0.35179 -0.47856 0.43543 -0.48626 -0.29031 0.50134 0.8707 0.0083544 -0.040745 -0.44846 -0.34305 0.82157 0.28051 -0.45703 1.1152 -0.14301 -0.25771 -0.52299 -0.059365 -0.0036947 0.33024 0.12161 -0.28569 0.084303 -0.23112 0.36291 0.12704 0.43529 -0.21959 -0.88756 -0.32827 0.16451 0.15286 -0.22712 -0.43657 -0.5589 0.20819 0.27618 0.0068042 -0.38585 0.38644 0.26548 -0.30639 0.40508 0.28203 0.066893 0.27846 -0.04159 -0.19897 -0.069581 -0.022113 -0.11383 -0.016752 0.34341 -0.040238 0.023023 -0.060536 0.00063353 0.46462 0.31575 -0.25419 0.70033 0.34258 0.0090833 -0.0056775 -0.38406 0.074019 -0.051943 0.2604 -0.37968 0.2839 -0.86205 0.32449 0.21275 -0.2219 -0.17133 0.5341 
significant 0.32545 0.10667 -0.25295 0.15311 -0.073274 -0.17294 -0.054649 0.39189 0.10075 0.20732 0.15818 0.064482 0.31533 -0.12805 -0.26319 0.069996 -0.026118 -0.042342 0.06481 0.40828 -0.014545 -0.13715 0.26992 0.098898 -0.25745 0.1914 0.067311 0.0012979 0.23024 -0.15176 0.081048 -0.20727 -0.13147 -0.42579 0.42403 -0.11477 -0.09478 0.41468 -0.8134 -0.15966 -0.054102 0.14393 0.4548 0.13504 -0.22214 -0.045552 0.19258 -0.0068233 0.24078 -0.11557 -0.21416 0.20466 -0.13899 -0.075029 0.18956 0.060329 -0.30459 -0.21845 -0.50181 0.2003 0.44904 -0.24611 -0.058129 -0.09107 -0.2769 -0.17971 0.085808 -0.16295 0.33104 0.040884 -0.20517 -0.060407 0.17714 0.054741 -0.31353 0.5596 0.11609 0.24903 0.18363 0.016895 0.20333 0.22482 -0.38551 0.031938 0.40596 -0.24554 0.10968 0.14042 0.36016 0.23342 -0.30204 0.24826 0.33315 0.077511 -0.54406 -0.29894 0.2544 -0.63244 -0.45013 -0.3339 
other -0.22564 0.35233 -0.5903 -0.066332 -0.077538 -0.12564 0.32514 0.23769 0.018022 -0.037141 -0.15179 -0.13667 0.054213 -0.091264 0.17523 0.24486 0.48202 0.054867 0.072492 -0.2127 0.23229 0.13874 0.4242 -0.12914 0.015321 0.22019 0.16698 0.27441 0.15054 0.09246 0.15009 -0.097852 -0.29558 -0.055701 -0.15654 -0.067602 -0.33253 -0.0041433 -0.33128 0.15659 -0.29282 0.05778 0.21711 -0.027562 0.10583 -0.063989 -0.1598 0.30948 0.082429 -0.37813 -0.13018 0.2318 -0.22574 -0.37726 0.11421 0.10755 -0.26789 -0.088135 -0.30908 -0.11887 0.44721 -0.19019 -0.022674 0.063886 -0.35269 -0.20527 0.3532 0.20814 -0.023628 0.078257 -0.13352 0.28274 -0.20198 0.24654 -0.25258 0.38976 -0.16152 0.045356 0.23859 0.00047691 -0.2779 0.27317 -0.030602 0.28913 0.2757 -0.093136 -0.021982 0.22547 -0.1296 -0.1179 -0.18569 0.38412 0.11233 -0.16901 -0.41396 -0.46332 0.33222 0.074215 -0.42382 0.11109 
used -0.18993 0.31121 -0.19896 0.079773 -0.40981 0.4318 0.091608 -0.27659 0.13338 0.12433 -0.14537 -0.56575 0.0074682 0.30893 0.39069 0.082744 0.34009 -0.29565 0.13953 -0.46633 0.17146 0.054278 -0.02806 -0.12641 -0.89905 0.41733 0.24743 -0.25864 0.33436 -0.022644 0.48856 -0.049423 0.13909 -0.060318 0.21679 0.24211 0.033663 0.42085 -0.37858 0.096932 -0.46848 -0.052544 -0.041437 0.28577 0.42986 -0.38585 0.31703 -0.18123 -0.010748 -0.22498 -0.066551 0.1772 -0.55592 -0.067972 -0.02929 0.13054 -0.66386 -0.27304 -0.15114 0.22178 0.067292 -0.1595 0.17337 0.20125 -0.4371 0.16814 0.38031 -0.15305 0.29848 0.32632 0.018906 0.21609 0.20422 -0.23724 0.38432 0.34943 -0.2842 -0.1168 0.2903 -0.481 0.039392 0.22624 0.041747 0.17725 -0.44209 -0.02761 -0.3684 -0.28595 -0.17477 -0.20206 -0.13892 0.21765 0.17873 -0.0035134 -0.23363 0.051739 0.19087 -0.35436 -0.034292 -0.045932 
factor -0.57029 -0.24089 -0.65342 0.016883 0.0060094 0.21316 0.10364 0.37015 -0.52023 -0.44013 -0.053039 0.22498 -0.067803 -0.35277 0.62015 -0.081507 -0.11802 -0.0010023 0.22741 -0.52958 -0.77439 -0.29642 -0.48353 -0.25223 -0.50205 0.17458 -0.24831 -0.26805 -0.098676 -0.49096 0.43058 -0.29362 -1.3464 -0.27532 0.35328 -0.055877 -0.86084 0.1213 -0.43011 0.10377 -0.62578 -0.25896 0.17443 -0.23672 0.22435 0.32956 0.18063 0.70916 0.27426 0.2446 -0.55619 -0.33249 -0.47771 -0.25515 0.019624 0.2122 -0.36266 -0.095119 -0.22434 0.213 0.256 -0.36174 0.39921 -0.21315 -0.13955 0.36413 0.0060506 -0.40651 0.04004 0.48517 0.43774 -0.66326 0.40928 0.018409 -0.47793 -0.045001 0.29399 -0.066467 -0.11712 0.059455 -0.19661 0.13897 0.59656 0.19396 -0.19223 -0.22166 -0.29728 -0.41939 -0.31103 0.32773 -0.46906 0.55621 0.11708 -0.4514 -0.019097 -0.19552 -0.085352 -0.18461 -0.082604 -0.061663 
into -0.079502 0.13549 0.50723 -0.028554 0.016367 0.17847 -0.0038475 -0.021882 -0.36554 0.010401 -0.20048 0.052519 0.24704 0.070979 -0.061906 -0.19049 0.63062 -0.29037 -0.056608 0.055682 0.0026261 -0.16763 -0.12056 0.031802 -0.35931 0.82642 0.31846 0.30014 0.4468 -0.22614 0.57585 -0.48484 0.030783 0.36787 0.28832 -0.52141 -0.16102 0.45891 0.53197 0.42511 -0.93232 0.60817 -0.14794 0.048995 0.2543 -0.13573 0.073882 -0.19694 -0.60381 -0.1611 -0.21825 0.38417 -0.010114 -0.039006 0.70524 -0.2731 -0.037866 0.090868 -0.14813 0.19308 -0.058395 -0.072997 0.54666 0.53975 0.15485 -0.11393 0.28782 0.40971 0.48555 0.25316 -0.1109 0.22532 0.00067245 0.062362 -0.36447 -0.1741 -0.01756 -0.073944 -0.05228 -0.51044 -0.77875 0.32909 -0.056912 -0.13124 0.32733 -0.031381 0.29887 -0.24858 -0.17052 0.14473 -0.007982 0.39953 0.47362 -0.0073972 0.17162 -0.15585 0.38053 -0.12245 -0.37243 0.34895 
growth -0.31806 0.0085895 -0.7725 -0.4898 -0.092382 -0.052757 -0.13838 -0.080527 -0.96818 -0.16548 0.16704 0.12914 -0.26146 -0.54049 0.12936 0.00021568 0.0011055 0.10827 0.26425 -0.402 -0.51275 0.18205 -0.45672 -0.032693 -0.45754 0.10353 -0.1744 -0.6062 0.26146 -0.20564 0.1755 -0.19273 -0.42304 0.088924 0.78124 0.040784 -0.87067 0.01407 -0.36891 0.073119 -0.15814 -0.29703 0.45815 -0.41734 -0.27736 0.0079605 0.216 0.62495 0.49927 0.095287 0.051432 0.18531 -0.59653 0.36148 0.34305 0.36139 -0.55059 -0.16921 -0.19407 -0.0011981 0.20551 -0.48356 0.41661 -0.0018177 0.0863 0.12735 -0.087236 0.21313 0.31236 0.070554 0.45567 0.1533 0.27036 -0.13758 -0.5448 0.03454 -0.26635 0.29132 -0.52632 -0.68348 -0.24263 0.83242 0.35238 0.50214 -0.060229 -0.20907 0.14316 -0.18667 -0.30737 0.27156 -0.42946 0.546 -0.22108 -0.037576 -0.076368 -0.39796 -0.11231 0.33601 -0.29916 0.24955 
response -0.1729 0.25588 -0.018891 -0.61339 0.027799 0.14891 0.19615 -0.33959 -0.22697 -0.22511 -0.12249 -0.0074285 0.45786 -0.25108 0.062473 -0.074702 -0.19208 0.18288 0.20703 -0.29614 -0.30497 0.26415 0.37518 0.097073 -0.19926 0.096832 -0.074059 -0.32824 0.048872 -0.095373 -0.059142 -0.054576 -0.73459 0.37686 0.084526 -0.10768 -0.36242 0.25361 -0.090178 -0.082497 -0.020556 -0.0060276 0.30726 -0.12189 0.1531 -0.24597 0.5081 0.14365 0.058966 -0.51749 0.019542 0.16784 -0.48624 0.2682 -0.19488 0.23089 -0.15691 0.05114 -0.72049 0.059855 0.33721 -0.35716 0.17849 -0.33408 -0.029247 -0.066129 -0.30366 0.3337 0.35679 0.058737 -0.30976 -0.018037 0.60405 0.19982 -0.40815 0.48249 0.32309 0.067849 0.40312 -0.053836 -0.51869 -0.22942 0.41092 0.10621 0.36108 -0.21092 -0.13887 -0.29195 -0.01593 0.43702 -0.49939 0.32251 -0.02618 0.15679 -0.036883 -0.10488 -0.273 -0.6168 0.41356 -0.070352 
no 0.3436 -0.09502 -0.23936 0.17387 -0.22125 -0.27475 -0.00095546 0.38252 0.35129 0.10376 0.0084596 0.2357 0.00035989 -0.0011151 -0.26168 0.18112 0.046752 0.010111 0.045791 0.25324 0.26184 -0.035006 0.28619 -0.027631 -0.22091 0.14664 0.29053 0.31751 0.35918 0.097217 -0.15327 -0.37604 -0.15038 -0.51014 0.27042 -0.075601 -0.094217 0.22674 -0.50912 0.0009104 -0.14572 0.26438 0.41875 0.15152 -0.46721 0.025809 0.05923 0.19787 0.14187 -0.14387 -0.23575 0.40199 -0.23077 -0.19043 0.14299 0.2353 -0.4446 0.030209 -0.3945 0.12165 0.53815 -0.20797 0.1051 0.16042 -0.16362 -0.071448 0.043035 0.011629 0.33762 0.007326 -0.13803 0.089278 0.32338 -0.019707 -0.3439 0.85498 0.11143 0.10492 0.16734 -0.11721 0.14393 0.077747 -0.38375 0.36558 0.28078 -0.28166 0.10503 0.078 0.088608 0.061733 -0.27085 0.017211 0.5137 0.092297 -0.34111 -0.28721 -0.1145 -0.31357 -0.3298 -0.35036 
more 0.059994 0.2117 -0.34749 0.075596 0.069007 0.033554 0.069638 -0.14474 -0.20211 -0.17627 0.11197 0.33106 0.46768 -0.336 0.31782 -0.090215 0.043351 -0.18662 0.033425 -0.062329 -0.091982 -0.30243 0.16716 0.046646 -0.21114 0.22907 -0.16198 0.17644 0.06757 0.1779 0.26801 -0.0014521 0.13757 -0.090021 -0.081034 -0.12977 -0.20462 0.19908 -0.34 0.26175 -0.10638 -0.38859 0.12315 0.30403 0.072137 0.011246 0.049028 -0.37629 -0.02356 -0.33294 -0.43564 -0.0014849 -0.40077 -0.37023 0.56192 -0.049457 -0.18371 -0.16913 -0.25759 -0.20086 0.041137 -0.41291 -0.0010417 0.32122 -0.1184 -0.23132 0.22918 0.34452 0.016162 0.0065186 -0.34839 -0.022506 0.14886 0.057807 -0.39984 0.4886 -0.37481 -0.21402 0.1692 -0.48061 -0.42449 0.051402 0.0028591 0.0045815 0.47147 0.00084217 -0.088592 0.18211 -0.2658 0.13807 -0.23092 0.25408 0.015207 0.059689 -0.077611 0.039224 0.0093306 -0.35468 -0.023378 -0.10004 
analysis -0.28561 0.19231 -0.47182 0.29471 -0.18413 0.25215 -0.13057 0.1373 -0.41057 0.39248 -0.18737 -0.10387 0.22857 0.032662 0.12776 -0.095278 0.1016 -0.58733 0.45464 0.011773 0.0010055 -0.05282 -0.011473 -0.5665 -0.40767 -0.15395 -0.15098 -0.042042 0.057969 -0.29713 -0.013938 -0.27415 0.079527 0.13607 0.07787 -0.0073566 -0.025208 0.025283 -0.6729 -0.38086 -0.55263 0.36324 0.061621 0.041261 0.2817 -0.29056 0.31439 -0.096411 0.16049 -0.068201 -0.25966 0.031159 -0.44404 -0.10577 0.073782 0.26468 -0.40056 -0.15058 0.14011 -0.186 0.0038044 0.22538 -0.073837 -0.18421 0.21505 -0.074996 0.2024 0.19884 0.39034 0.30859 -0.52492 0.14315 0.3786 -0.15909 0.087092 0.21433 0.31562 -0.18049 -0.0084345 -0.19356 0.18892 0.37401 0.2084 -0.12246 -0.045169 0.0691 0.30834 -0.13709 0.044773 0.057228 -0.53371 0.15234 0.48899 0.26115 -0.49845 -0.60054 0.68688 -0.80795 -0.45862 -0.086705 
group -0.10437 0.14864 0.29029 0.21665 0.070417 0.1547 0.40575 0.23006 0.095844 0.022081 0.40443 0.069156 0.31738 -0.48939 -0.36035 0.077888 0.20571 0.42125 0.22029 0.17819 0.19429 0.16502 0.39033 -0.037924 0.061839 0.081107 0.070662 -0.02752 0.26116 0.22034 0.68517 -0.21359 -0.3021 0.34573 0.059246 -0.72159 -0.35902 0.74433 -0.45016 -0.045868 -0.20912 0.57651 0.39453 0.42107 -0.31002 0.2405 0.053755 -0.75045 -0.14658 -0.16112 -0.29346 -0.027593 -0.033386 -0.24976 0.33811 -0.083493 -0.00055888 -0.33365 -0.12 -0.3546 0.44191 -0.3927 0.45807 -0.069324 -0.16521 0.049625 0.47325 -0.46132 0.21039 0.85521 -0.37144 -0.24496 -0.070121 -0.36599 0.025841 0.16524 -0.20398 0.027612 0.068957 -0.25327 -0.078573 0.32016 -0.20926 0.55351 0.61989 0.14991 0.30938 0.17257 -0.13055 0.41142 0.15951 0.47039 0.44246 -0.079148 -0.24777 -0.35409 0.12497 -0.56239 -0.23619 0.057395 
high -0.043279 0.11375 -0.42666 -0.005299 -0.16727 -0.21943 0.23987 -0.20522 -0.22068 0.14399 0.45539 0.077465 0.054351 -0.12797 -0.0034209 0.20209 0.32825 -0.016823 0.3636 -0.044913 -0.080184 -0.29895 0.21014 -0.11246 -0.28202 -0.36117 -0.39323 -0.1007 -0.044812 -0.40566 0.15905 -0.43905 -0.17749 0.18546 0.33203 0.024078 -0.23651 0.45446 -0.24602 -0.058277 -0.16692 -0.3223 0.034544 0.18221 0.034303 -0.28136 -0.086951 -0.33278 -0.1842 0.05227 -0.19166 -0.17787 -0.24998 -0.16173 0.48972 -0.58233 -0.47982 0.59819 -0.20705 0.056859 0.67001 -0.51792 -0.036091 0.4678 -0.0501 -0.4296 0.15572 0.26032 0.39423 -0.060825 -0.060338 -0.096283 0.2107 -0.028268 -0.24711 0.39857 -0.086678 0.035682 -0.023812 0.12043 0.12417 0.40138 0.10253 -0.1052 0.36951 -0.14194 -0.15822 -0.019383 0.038143 0.060221 -0.3493 0.3064 0.15713 -0.12534 -0.13829 0.016952 -0.16549 -0.18956 -0.0086439 0.064143 
different -0.1467 0.29576 -0.39717 -0.036098 -0.028308 -0.10431 -0.093553 -0.048439 0.013312 0.059013 0.040128 -0.42458 0.19317 -0.19893 0.016741 0.2409 0.51653 0.24466 -0.013972 -0.53045 0.342 -0.02051 0.22082 -0.10979 0.0078056 0.22031 -0.048899 0.13936 0.24452 0.026158 0.20797 0.095272 -0.3366 0.20787 -0.0041107 0.038282 -0.30878 0.24029 -0.11126 -0.090331 -0.51336 -0.025077 0.20443 -0.04674 0.25744 -0.45893 0.24975 -0.093675 -0.26111 -0.1943 0.10003 -0.06858 -0.18474 -0.18289 -0.012689 0.11789 -0.25292 0.27358 -0.3182 0.07674 0.41589 -0.16568 -0.035959 0.12253 -0.4028 -0.26703 0.36069 0.11438 0.028501 0.26152 0.082749 0.54667 0.1085 0.20002 -0.10273 0.25032 -0.19594 -0.06199 0.15551 -0.016586 -0.33012 0.44268 -0.33498 0.23143 0.36036 -0.26282 0.19549 0.13794 -0.26537 -0.18604 -0.35929 0.27856 0.02195 0.0020374 -0.28211 -0.49883 0.28308 -0.048849 -0.57412 0.53633 
1 0.20428 -0.48673 -0.088229 -0.176 0.1282 -0.063712 0.16458 0.36961 0.38566 -0.17968 -0.1309 0.79348 -0.21734 -0.12902 0.032139 0.36124 0.14091 0.4767 0.41685 0.0049713 0.31044 0.081445 0.02389 0.55946 -0.35166 -0.48612 -0.0072054 0.28154 -0.052024 -0.5686 0.28466 0.01438 -0.42673 0.3623 0.091657 -0.3596 -0.3853 0.12045 -0.25634 -0.0073025 -0.094677 0.11565 0.35662 0.23853 0.53267 0.17778 0.35709 0.07263 0.19609 -0.021917 -0.20462 -0.040918 -0.73242 0.1904 0.29974 0.59644 -0.34276 -0.13116 -0.050107 0.28123 0.32253 -0.50834 0.15527 0.37137 -0.24349 -0.43488 0.034401 0.045731 -0.10465 0.63115 -0.05895 -0.33018 -0.011186 -0.043843 0.055523 0.4157 0.04592 -0.16133 -0.48993 0.28214 0.12069 0.23887 0.49583 0.31815 0.26154 -0.21733 0.08604 -0.39318 -0.50222 0.24647 -0.23032 0.62516 0.60343 -0.4014 -0.009633 -0.42099 0.039296 -0.062174 0.16068 0.53677 
control -0.31576 6.5434e-05 0.26354 -0.058361 -0.24763 -0.027835 0.18346 -0.060203 0.0089311 0.39589 0.11571 0.081404 -0.019425 -0.21763 -0.057688 -0.2568 0.1723 0.48701 0.031087 -0.25365 0.24087 0.079457 -0.21411 0.4405 0.092088 0.25571 0.28077 -0.075299 0.056794 0.217 0.23411 -0.37247 -0.24841 0.15365 0.19356 -0.35706 -0.34907 0.55396 -0.42944 0.047487 -0.39331 0.45236 0.48828 0.28322 0.077612 0.18073 0.061966 -0.36899 0.10482 -0.1128 -0.14311 0.17559 -0.085295 -0.1011 -0.10771 0.095622 0.11684 -0.025021 -0.42748 -0.046744 0.11973 -0.61511 0.27783 0.06116 -0.13992 -0.11338 0.41825 -0.24056 0.69386 0.23346 -0.17606 -0.12103 0.43479 0.35156 -0.41593 0.35693 -0.072691 -0.10028 0.38234 -0.33425 -0.26463 0.29007 0.014888 0.31193 0.19619 0.074955 0.32638 0.20078 -0.20149 0.18547 -0.062127 0.40246 0.15603 0.15442 -0.12548 -0.30583 0.23039 -0.35104 -0.056937 0.24386 
higher -0.031627 0.16403 -0.48864 -0.0015182 0.14111 -0.27907 0.23557 0.090858 -0.068398 -0.097607 0.47842 0.35304 0.35415 -0.10042 0.015883 -0.14209 0.29614 0.33037 0.0026958 0.081374 -0.093678 -0.17073 0.016342 0.019915 0.082944 0.055561 -0.53441 -0.18717 0.26399 -0.22695 0.49033 -0.42707 -0.032257 0.17716 0.27871 -0.27371 -0.25903 0.57374 -0.49645 0.089997 -0.095981 -0.22415 0.13406 0.45056 -0.11643 -0.13586 -0.068205 -0.59725 0.042603 -0.055383 -0.44686 -0.15525 0.17158 -0.024426 0.44799 0.14685 -0.30995 0.38287 -0.29414 -0.12721 0.43562 -0.38011 -0.097773 0.057528 -0.16278 -0.19454 0.28013 0.14376 0.4059 0.36617 -0.16136 -0.0056306 0.13908 0.21128 -0.4757 0.35787 -0.51567 -0.045825 0.24767 -0.022089 -0.083217 0.31493 -0.20027 -0.17267 0.31359 -0.22456 0.049736 0.34579 0.13885 0.27083 -0.20549 0.18938 0.18284 -0.36274 -0.22926 0.072632 -0.063875 -0.54658 -0.26625 -0.20134 
binding -0.38934 0.45273 -0.35373 -0.088985 -0.53941 -0.018064 0.45275 0.64718 -0.14119 -0.27158 -0.20992 0.45789 -0.46696 0.13853 0.47127 -0.049918 -0.11853 -0.1624 0.4803 -0.90847 -0.25806 -0.45601 0.243 0.27025 -0.49657 -0.2088 -0.37077 0.026278 0.25827 0.030601 -0.13206 -0.065961 0.0050279 -0.10776 0.18737 -0.47999 -0.26326 0.19082 -0.15044 -0.016326 -0.41131 -0.08089 -0.12347 -0.17281 0.54968 0.099026 0.11882 -0.0054245 -0.53658 -0.6257 0.19167 0.13383 -0.31484 0.98641 -0.10873 0.073636 -0.45349 -0.11902 0.61659 -0.36188 0.81347 -0.48014 0.17064 -0.1224 -0.011968 0.31785 0.060582 0.092951 0.023299 0.38639 0.1498 -0.35535 0.49107 0.23079 -0.10417 0.42674 0.62523 0.046851 0.13328 0.088166 -0.25341 0.17575 -0.33711 0.026657 0.3047 -0.52015 0.043052 0.47244 0.16058 0.0028874 -0.33273 0.69123 0.057201 -0.13494 -0.19754 -0.54133 0.27363 0.051174 0.066106 0.097349 
tumor 0.32552 -0.0020646 -0.74338 -0.44933 -0.35141 0.56869 -0.17188 0.24015 -0.61404 -0.42457 -0.32876 0.22367 0.095979 0.05065 0.43112 -0.16887 0.33588 0.35276 0.70308 0.44619 -0.22445 -0.10882 0.1323 0.11951 -0.67989 0.16214 0.11215 -0.30545 0.15834 0.21226 -0.21838 -0.50779 -0.5601 -0.26598 0.75476 0.16652 -0.29102 0.81417 0.15114 -0.22516 -0.39099 -0.58636 0.28177 -0.3082 0.19783 -0.22006 0.029497 0.22519 0.095234 -0.17157 0.1486 -0.56795 -0.72864 0.10814 0.45116 0.70282 0.18018 -0.28735 -0.47649 0.41224 -0.17784 -0.14951 -0.27449 0.050197 0.01257 -0.067388 0.41623 0.26338 0.17479 0.32994 -0.21119 -0.11675 -0.35723 0.35309 -0.51495 0.26755 0.63005 -0.25568 -0.34245 -0.6455 0.31238 0.63137 0.28407 -0.070227 0.61192 0.11981 -0.050139 -0.0056724 -0.51243 0.12772 0.040788 0.41459 -0.24284 0.16547 -0.45262 -0.31799 -0.15649 -0.014179 -0.42166 0.14635 
clinical -0.11006 0.2535 -0.35579 -0.088774 -0.25849 0.12081 0.33813 0.2186 0.15392 -0.053992 0.22096 -0.026104 -0.10083 -0.4116 -0.44737 0.60459 -0.10356 -0.17604 0.24777 0.33731 0.050528 0.30699 0.00044205 -0.41891 -0.51788 0.60679 0.41383 -0.26914 0.088282 0.18629 0.031949 -0.44583 -0.48281 -0.012006 0.27952 0.18685 -0.32549 -0.012379 -0.36448 0.12298 -0.64428 -0.32932 0.61684 0.22485 -0.21309 -0.20835 -0.021783 0.37416 0.088053 -0.41024 0.60976 0.074546 -0.56754 -0.26602 0.37497 0.11193 -0.17171 0.12167 -0.36251 -0.17373 0.22791 0.073183 -0.40856 -0.01491 -0.12294 0.14907 0.32996 0.36938 0.036879 0.33616 -0.15918 0.081197 0.67466 -0.10196 -0.031372 0.21784 -0.29721 -0.11271 0.11249 -0.31732 -0.062347 0.30766 0.15938 -0.30296 0.68797 -0.13371 -0.00093241 0.061627 -0.064729 -0.45481 0.19404 0.48651 0.40748 0.37827 -0.28001 -0.48185 -0.13076 -0.43758 -0.026573 0.49551 
all -0.19453 0.2298 -0.42954 0.068371 -0.15951 -0.36773 0.38773 0.065296 0.040513 0.12432 -0.15355 0.12208 0.077008 -0.17739 0.035194 0.20762 0.15959 -0.10279 0.1078 -0.03231 0.081166 -0.044624 0.22489 -0.22028 0.023133 0.00011642 0.010188 0.32277 0.33373 0.14225 0.15059 -0.14496 -0.12785 0.033087 0.052744 -0.13031 -0.082066 0.1387 -0.3404 -0.14242 -0.1006 0.089368 0.24857 -0.16476 0.24072 -0.15333 0.29632 0.061777 -0.024645 -0.46379 -0.16646 0.0079925 -0.18964 -0.37986 0.026461 0.31732 -0.20677 -0.052084 -0.35979 0.053897 0.44919 0.052318 -0.20251 0.10723 -0.35068 -0.28985 0.4734 0.06374 0.13436 0.20044 -0.23081 0.31615 -0.051692 0.15453 -0.31399 0.35446 -0.34676 -0.058549 -0.076203 -0.1597 -0.031799 0.1542 -0.18632 0.34656 0.3944 -0.021334 0.034123 0.19392 -0.16847 0.035715 -0.22745 0.23042 0.23233 -0.072241 -0.14943 -0.064172 0.385 -0.042211 -0.29829 0.35366 
blood -0.14776 0.18346 0.42798 -0.73732 0.095685 0.086735 0.65027 0.0026893 -0.20216 0.076928 0.052094 0.069251 -0.14778 0.32778 -0.10616 -0.29844 0.21801 -0.17811 0.5829 0.29357 0.049133 0.057728 0.048201 -0.10443 0.14515 0.41771 0.50363 -0.80428 -0.33419 -0.3255 0.58494 -1.0164 -0.46146 0.0069551 0.2891 -0.59192 0.30555 0.12482 -0.6466 -0.44727 -0.32445 -0.24164 0.38012 -0.43299 0.47769 0.26389 -0.40161 -0.27026 -0.070695 -0.26918 -0.071045 -0.0070251 -0.33129 -0.65666 0.26978 -0.0066167 -0.2938 0.031081 -0.20753 0.35651 0.278 -0.59821 -0.088817 -0.0027569 -0.076316 -0.37906 0.45084 0.19583 0.26259 0.44048 -0.39461 0.24392 0.27966 0.15868 0.14344 0.36378 0.47601 0.005676 -0.18578 -0.40238 0.02393 0.26914 -0.33656 0.33325 0.095761 -0.40936 -0.082435 0.082818 0.10225 -0.14898 -0.58756 -0.0092561 0.15243 0.30023 -0.37972 0.19039 -0.08996 -0.24778 -0.10135 0.44078 
increase 0.25204 0.14682 0.22933 -0.38215 -0.25438 0.14349 0.14484 0.28493 0.13162 -0.22529 0.1587 0.20326 0.12172 -0.0751 0.03506 -0.21663 -0.045409 -0.17214 0.22295 0.18235 -0.27967 -0.28762 0.071414 0.40827 -0.053282 -0.0073136 -0.20228 0.17381 0.14724 -0.27937 0.070071 -0.41804 0.10358 0.22311 0.44592 0.069918 -0.14165 0.45618 -0.45832 -0.20046 0.11406 -0.15448 0.29448 0.22997 0.11895 -0.10428 -0.023712 -0.041219 0.23113 0.047875 -0.42118 0.05606 -0.17782 0.23875 0.37407 0.11073 -0.49032 0.070799 -0.26574 0.23129 0.49175 -0.61422 -0.017609 -0.19529 0.016426 -0.37906 -0.099906 -0.011718 0.42562 -0.12403 0.18561 -0.20002 0.23475 0.071499 -0.70948 0.42048 -0.14522 0.31491 0.20938 0.0040625 -0.016261 -0.0079872 -0.27751 -0.15784 0.032703 -0.11785 -0.080628 -0.00060004 0.42562 0.32726 -0.17012 0.23385 0.036258 -0.11995 -0.33952 0.046021 0.39158 -0.68844 -0.26424 0.11208 
observed 0.27352 0.12272 -0.31101 -0.20257 -0.12961 -0.3112 -0.12935 0.28134 -0.070965 -0.04662 0.0077568 0.049008 0.17817 -0.050976 0.0096255 -0.11624 0.11857 0.26724 0.20684 -0.11125 0.030967 -0.061858 0.17428 -0.18517 -0.33107 -0.049682 -0.22322 0.32623 0.44915 -0.22614 0.074879 -0.28089 -0.0591 -0.046474 0.26902 -0.34883 -0.00095739 0.21061 -0.62379 -0.11276 0.088881 0.1409 0.28278 0.051611 -0.1786 -0.083403 0.14619 0.079526 -0.1463 -0.088656 -0.052215 -0.15996 -0.17282 -0.10085 -0.021301 0.29152 -0.39561 -0.12407 -0.27131 0.020414 0.059141 -0.093786 0.060184 -0.19629 -0.027972 -0.074105 0.35766 0.013299 0.33661 0.039194 -0.042712 0.13735 0.22648 0.36844 -0.23413 0.50176 -0.26284 0.075472 0.34494 -0.14351 -0.31423 0.25117 -0.45106 0.061687 0.19501 -0.083906 0.24555 -0.053625 0.016746 0.11483 -0.24143 0.07906 0.10972 -0.020243 -0.30395 0.07606 0.11936 -0.53923 -0.088084 -0.19366 
studies -0.16514 -0.1248 -0.1736 -0.17047 -0.53492 -0.22081 0.16916 0.2072 -0.25177 0.05947 -0.21338 0.17624 0.10798 -0.22297 0.057642 0.060788 0.11791 -0.21111 0.52158 -0.070365 0.21939 0.12843 0.042972 -0.48538 -0.57847 0.012858 0.37231 0.023597 0.5651 -0.0016904 -0.0078069 -0.30144 -0.28505 -0.34781 0.070359 -0.14811 -0.24377 -0.20266 -0.19539 -0.11874 -0.56078 -0.14225 -0.12127 0.49671 0.018725 -0.24051 0.039512 0.33289 0.11304 0.062492 0.048776 0.34655 -0.6081 -0.35822 0.297 -0.12189 -0.29869 -0.2163 0.036016 -0.17929 0.23407 0.18984 0.011438 0.12373 0.10603 -0.23168 0.1692 0.15072 0.15864 -0.37038 0.19848 -0.0069575 0.78225 0.12248 0.13281 0.066139 0.21232 -0.42518 0.14887 -0.23413 0.074339 0.028177 -0.12597 -0.16737 -0.056993 -0.21292 0.45174 0.051124 -0.22951 -0.13575 -0.55925 0.67646 -0.042019 -0.018254 -0.25926 -0.26188 0.59891 -0.8149 -0.10705 0.083477 
2 0.13928 -0.32249 -0.079891 -0.12386 0.079099 -0.093976 0.24376 0.32687 0.22157 -0.081413 -0.11156 0.65066 0.062323 -0.34381 -0.040269 0.56449 0.23343 0.51897 0.30082 -0.087397 0.32023 -0.042538 -0.082311 0.38805 -0.27479 -0.38133 0.22426 0.2409 -0.029977 -0.56013 0.28543 0.13333 -0.37561 0.3286 0.09139 -0.17671 -0.44287 -0.078138 -0.4714 -0.21387 -0.14604 0.090777 0.091116 0.17379 0.40244 0.16686 0.37022 -0.013126 0.10584 0.0158 -0.19156 -0.038161 -0.65003 -0.035539 0.54485 0.52042 -0.25322 -0.086176 -0.27626 0.17671 0.40042 -0.49129 0.089831 0.35069 -0.22199 -0.35672 0.17944 0.16576 -0.037557 0.48959 -0.10915 -0.22275 -0.0012318 0.094626 0.093185 0.17671 -0.057816 -0.10611 -0.33269 0.22869 0.091429 0.31588 0.15989 0.36895 0.31479 -0.21498 0.19145 -0.28711 -0.7149 0.30914 -0.23344 0.55209 0.61549 -0.30187 0.1482 -0.32439 0.010085 -0.18673 0.11633 0.68327 
data -0.2438 -0.12188 -0.26513 -0.062104 -0.3192 -0.085709 0.12431 0.27011 -0.23571 0.13907 -0.062556 0.00084529 -0.11847 -0.15918 0.12499 -0.14629 -0.073556 -0.1104 0.44397 -0.10362 0.22847 0.19911 0.033551 -0.70144 -0.20645 0.11583 0.051028 -0.059457 0.29597 0.13152 -0.047393 -0.40896 -0.33576 0.21192 -0.27685 -0.11382 0.057569 -0.094209 -0.056612 -0.39798 -0.18612 -0.1776 -0.10957 0.34918 0.38835 -0.068823 0.045462 0.4426 0.088692 -0.30493 -0.0096912 0.2146 -0.29524 -0.28704 0.062452 0.063596 -0.45413 0.056654 -0.021552 0.39199 0.097875 0.23004 0.044613 -0.12944 0.21004 0.05372 0.047429 0.011533 0.2824 -0.29216 -0.29064 -0.069286 0.40225 -0.2043 -0.0040041 -0.013795 -0.02979 -0.58211 0.055543 -0.4091 0.056707 0.068498 0.00015557 -0.40679 0.42908 0.07181 0.37063 -0.10047 -0.073296 -0.042291 -0.47408 0.53461 0.085199 0.32561 -0.697 -0.3566 0.64731 -0.73531 -0.37184 0.35036 
disease -0.16089 0.056546 -0.1426 -0.17975 -0.15883 0.37035 0.042638 0.643 0.11922 -0.27351 -0.0034006 0.16986 0.28064 -0.49018 -0.020256 0.21207 0.0804 -0.31127 0.20483 0.22673 0.27583 0.29467 -0.19669 -0.37166 -0.079628 0.57513 0.45878 0.085375 0.065677 -0.051151 0.53195 -0.35954 -0.2965 0.55584 0.48306 -0.091238 -0.38269 0.46298 -0.59446 0.29564 -0.43051 0.17665 0.84156 -0.076641 0.63982 -0.1702 -0.12828 0.47409 0.26641 -0.26924 0.84887 0.033081 -0.40327 -0.29049 0.29402 0.061617 -0.015244 -0.29434 -0.73751 -0.14505 0.17784 -0.23404 -0.22768 0.42778 0.030474 0.24606 0.081816 0.37103 0.06675 0.015198 -0.20188 -0.57966 0.59491 0.0033332 0.019322 0.67513 -0.14793 0.081704 0.19185 0.45801 -0.46837 0.60103 0.271 -0.13488 0.47908 -0.19064 -0.19777 0.54707 -0.53782 -0.20236 0.14481 -0.22006 -0.20694 0.31107 0.066117 -0.27642 0.30989 -0.43753 0.54485 -0.18131 
mice -0.32983 -0.26819 0.23285 -0.065723 -0.6744 -0.29772 -0.061671 0.3493 -0.30753 -0.062563 0.48066 -0.16845 0.31979 -0.47463 -0.29869 0.12592 0.16329 -0.1835 0.30986 0.00099079 0.44534 -0.27837 0.16334 0.376 -0.086796 0.042837 0.42605 -0.0011489 0.68627 0.19561 0.36534 -0.54133 -0.73616 -0.12528 0.050458 -0.71401 -0.33479 -0.061228 -0.14041 -0.41702 0.08523 -0.42807 0.41146 -0.082146 0.49519 -0.44168 0.14292 -0.41298 -0.43936 -0.10736 -0.20383 -0.27768 -0.41998 0.61629 0.51388 0.56081 -0.35985 -0.14413 -0.73927 0.29354 -0.024873 -0.59131 0.10238 0.35141 -0.060801 0.15128 0.31132 -0.15687 0.68436 -0.19506 -0.14809 0.22621 0.15526 0.41915 -0.46996 0.11501 -0.1595 0.0054128 -0.11177 -0.57741 -0.3239 0.21008 0.074366 -0.72276 -0.088273 0.40015 0.51305 0.39054 -0.56871 0.063389 -0.030691 -0.084086 0.016566 -0.23635 0.14281 -0.3015 -0.34514 -0.47811 0.23848 -0.45495 
serum -0.038029 0.30755 -0.29859 -0.26246 -0.55462 -0.087526 0.63243 -0.20589 -0.35181 -0.077856 0.45304 0.71726 -0.41743 -0.10275 -0.045729 -0.14545 0.30646 0.18808 0.37002 -0.0091609 0.053142 0.14702 0.085584 -0.12383 -0.12907 0.28603 0.3269 -0.37298 -0.14331 0.017448 0.61174 -0.87446 -0.15581 0.23676 0.44348 -0.17299 0.24912 0.84724 -0.66936 -0.33266 -0.48205 -0.022478 0.48216 -0.46195 0.022558 0.16809 0.2325 0.42206 0.091147 -0.51 0.21451 -0.29716 -0.29264 0.41829 0.73903 -0.596 -0.57232 0.14584 -0.5727 -0.095702 0.36571 -0.21521 0.037889 -0.34118 -0.17171 -0.010637 0.14012 -0.2423 0.13902 0.41934 -0.13424 0.21542 0.17062 0.016598 0.10149 0.15855 0.24115 0.37656 -0.07305 0.11285 0.06294 -0.013937 -0.26586 -0.10487 0.1745 -0.36647 0.1968 0.14915 -0.078556 -0.042285 -0.17937 -0.034818 0.091395 -0.3769 -0.17581 -0.30391 -0.10801 -0.56357 0.069043 -0.036672 
it 0.1336 0.35393 0.12045 0.19518 -0.28099 0.11256 0.16667 0.10825 0.047703 -0.16094 -0.25796 0.48034 -0.26695 0.072011 0.21725 0.023544 -0.030841 -0.19291 0.17522 -0.095803 0.18076 -0.075851 0.72462 -0.091435 -0.12377 0.25279 0.030158 -0.043343 -0.032057 0.25129 0.082433 -0.12066 -0.20104 -0.050157 0.016783 0.1415 -0.24634 0.39989 -0.247 0.1602 -0.23669 -0.22885 0.061703 -0.097458 0.037743 0.19999 -0.019289 0.50387 -0.090805 -0.31564 -0.37131 0.34375 -0.24034 -0.4451 0.41127 -0.005125 -0.45965 -0.11418 0.10629 0.15908 0.17001 -0.37847 0.12816 0.4099 -0.15119 0.01206 0.12336 0.020225 0.24955 -0.32714 -0.058395 -0.020224 0.26158 -0.15609 -0.22997 0.62236 -0.20977 -0.072102 0.092528 -0.25096 -0.31507 0.40824 0.25828 0.017822 0.23978 0.11739 -0.38714 0.20291 -0.14981 0.079157 -0.281 0.13142 0.16403 -0.041199 -0.27353 -0.17854 -0.16369 0.028155 0.031101 0.34823 
induced 0.27545 -0.1445 0.092301 -0.34147 -0.11275 0.061033 0.057629 0.19112 -0.30604 -0.41709 0.49371 -0.4945 0.088859 -0.023777 0.39672 -0.031157 0.19242 -0.02679 0.27446 -0.16535 0.10214 0.16387 0.21279 0.28205 -0.50754 0.059659 -0.094497 0.35511 0.22397 -0.44295 0.087348 -0.14033 -0.65094 0.12462 0.38827 -0.31027 -0.4662 0.2778 -0.20494 0.08154 0.2321 0.19526 0.26888 0.096141 0.26983 -0.20813 0.2624 0.025683 -0.043394 -0.37764 -0.60956 0.11051 -0.43542 0.33006 0.17702 -0.13266 -0.38879 -0.12746 -0.14506 0.25528 0.37769 -0.34449 0.30952 -0.26947 -0.16912 -0.052131 -0.10962 0.08158 0.43601 0.17267 -0.018173 0.4494 0.090766 0.17209 -0.23459 0.1777 0.0025413 0.30228 0.068904 -0.27756 -0.74998 0.083478 -0.085602 -0.38017 0.039469 0.044732 0.054852 -0.17499 0.25225 0.33343 -0.0064292 -0.0023076 -0.34625 0.079884 -0.11954 0.016457 -0.26821 -0.74603 0.16485 0.049581 
suggest -0.38156 -0.18163 -0.57711 -0.45019 0.032183 0.12732 0.29018 0.1795 -0.20768 -0.27146 0.09332 -0.23963 -0.020204 -0.024036 -0.024152 -0.21815 0.50979 -0.028007 0.3177 0.20409 0.21565 0.067171 0.22816 -0.046835 -0.4325 0.15269 -0.24181 0.081097 0.44001 -0.13222 0.1558 -0.10422 -0.26444 0.25524 -0.22101 -0.29815 -0.18686 -0.038025 -0.1556 -0.3573 0.18922 -0.44595 -0.34701 0.098006 -0.11128 0.012331 0.02419 0.48875 0.026492 -0.36494 -0.057782 0.087066 -0.019298 -0.27059 0.25498 -0.15489 -0.45769 -0.15405 0.047284 0.14028 0.096826 -0.23389 0.18187 -0.15183 0.010952 0.40501 -0.37134 -0.16975 0.049847 -0.24177 -0.080464 -0.19391 0.50118 -0.045035 -0.11178 0.042082 -0.04169 -0.42545 0.38239 -0.52044 -0.48484 0.09809 -0.22039 -0.5513 0.45475 0.30048 0.57049 0.072701 0.11589 0.071508 -0.53667 0.24631 0.013015 0.10764 -0.73149 -0.38633 0.74539 -0.26785 -0.46135 0.008 
present -0.061461 -0.029959 -0.18575 -0.10751 -0.23837 0.061118 -0.13663 -0.0038053 0.1181 -0.11468 -0.23388 -0.006299 0.12576 -0.12068 0.27494 0.034267 0.16458 0.099308 0.18084 -0.098624 -0.048884 0.07298 0.68919 -0.12493 -0.42155 -0.22379 -0.11898 -0.12194 0.30856 0.0095674 0.10675 -0.30958 -0.45956 0.25708 0.13135 -0.19059 -0.027284 0.32696 -0.21869 -0.12873 -0.56764 -0.18582 0.037508 0.16004 -0.10367 -0.29632 0.3263 0.482 -0.2213 -0.23725 -0.050114 -0.047611 -0.53345 -0.38607 0.41488 0.075255 -0.47678 0.015472 0.13409 0.36064 0.051679 -0.19082 -0.021024 -0.033703 -0.012117 -0.075317 0.22755 0.074404 -0.05457 -0.14662 -0.073763 0.10492 0.42847 -0.15167 0.16474 0.032518 -0.23402 0.15806 0.30608 -0.40856 -0.28219 0.12779 -0.16505 0.059153 -0.051607 0.00095201 0.18323 0.26752 -0.051403 -0.11976 -0.22089 0.24784 0.45249 0.045093 -0.15215 0.065274 0.62396 -0.086584 0.15659 -0.15563 
activation -0.25085 0.28683 0.18645 -0.36674 -0.65348 0.27261 0.14103 0.6381 -0.06289 -0.49952 -0.18598 -0.11254 0.23185 -0.049236 0.58808 0.28193 0.051324 -0.40235 0.12057 -0.4499 -0.051232 0.0093485 0.41679 0.096571 -0.17582 0.040668 -0.34761 0.36788 0.11178 -0.36938 -0.058049 -0.20595 -0.66388 0.19916 0.17101 -0.1242 -0.30653 0.04886 -0.53379 -0.1966 -0.12552 -0.28167 -0.052313 -0.008232 0.18606 0.065336 0.14098 0.18221 0.11686 -0.14451 -0.16373 0.42064 -0.1263 0.26195 0.23915 0.62317 -0.07831 0.51728 -0.076531 0.25354 0.021619 -0.40197 0.20506 -0.080769 0.36512 -0.011291 -0.21134 -0.18345 0.12718 0.15154 -0.068086 -0.11283 0.38301 0.18835 -0.13774 0.2469 0.55143 -0.043694 -0.141 -0.31796 -1.1106 -0.36283 -0.053466 -0.026727 0.068987 -0.073921 0.15881 0.13755 -0.041445 0.50482 -0.31963 0.37398 -0.43249 0.056895 -0.38217 -0.24053 -0.12323 -0.47334 -0.11574 0.44064 
However, -0.26099 -0.26908 -0.12802 0.14894 -0.083774 0.010419 0.14823 -0.093117 0.068621 -0.075407 0.12811 0.30031 0.32692 0.27544 -0.14291 -0.009182 0.33852 -0.026824 0.14335 -0.042812 0.2945 -0.14795 0.53762 -0.13806 -0.4095 0.19595 -0.37198 0.37058 0.33708 0.25501 0.25064 0.056164 -0.3374 -0.17248 0.1367 -0.00056123 -0.046766 0.17185 -0.02274 -0.02439 0.085325 -0.27429 0.28007 0.010874 0.041978 -0.11479 0.051692 0.46253 0.14016 -0.10385 0.012077 0.31892 -0.18987 -0.37083 0.06613 0.018564 -0.27429 -0.45157 -0.45126 0.073655 0.1873 -0.5524 0.10742 -0.050744 0.14414 0.17166 0.11207 0.096028 0.0097222 -0.053553 -0.26116 -0.082301 0.57071 -0.26959 -0.25904 0.34063 -0.093631 -0.0069482 0.2381 -0.29363 -0.36938 0.46729 -0.24275 -0.31332 -0.040519 -0.40678 0.14308 0.27172 -0.26543 0.23546 -0.22836 0.39857 0.28542 0.23714 -0.55037 0.0018161 0.071128 -0.20949 -0.21333 -0.25133 
normal -0.4232 0.15251 -0.12222 0.1832 -0.30124 -0.21861 0.37981 -0.13842 -0.19326 0.070565 0.057888 0.42927 -0.1677 -0.16707 -0.20244 -0.073753 0.3032 0.29901 0.10186 -0.28099 0.18806 0.32098 0.010992 0.36961 -0.049476 0.39817 -0.28272 -0.094077 0.12087 0.2532 0.021982 -0.89404 -0.25834 0.015435 0.20153 -0.63262 -0.34176 0.35385 -0.23878 -0.37978 -0.43863 0.038703 0.53297 -0.3647 0.2326 -0.19144 -0.29274 -0.21305 -0.11089 0.046271 -0.197 -0.30863 -0.23918 -0.22086 0.24629 0.17322 -0.0096747 0.24359 -0.23302 0.25085 0.1121 -0.31499 0.15827 0.10733 -0.08854 -0.29901 0.2972 -0.33267 0.56956 0.10835 -0.16244 0.37594 0.39167 0.171 -0.28188 0.45302 -0.033432 -0.034044 0.072023 -0.37299 -0.30941 0.49481 0.05392 0.35308 0.27887 -0.0056307 0.57846 0.33861 0.017796 -0.18361 -0.34706 -0.25802 0.047665 -0.056992 -0.11872 0.20245 -0.086517 -0.070064 0.2092 0.2676 
only 0.11992 0.0031473 -0.23675 0.17571 -0.15397 -0.26437 0.2399 0.093586 -0.027631 -0.083847 -0.15835 0.31765 0.022953 0.018009 0.20437 0.034754 0.11904 -0.14369 0.23997 0.13726 0.089662 -0.23003 0.31739 -0.093524 -0.23353 0.098805 -0.068671 0.2425 0.27509 0.11034 0.067192 -0.081706 -0.17337 0.031405 0.11594 -0.12846 -0.12197 0.19227 -0.41963 -0.031473 -0.050064 -0.048506 0.197 -0.033476 -0.038235 0.13029 0.14518 0.17671 -0.075707 -0.41452 -0.24774 0.11281 -0.28988 -0.23823 0.09047 0.065828 -0.37842 -0.087938 -0.21015 0.061662 0.35202 -0.29878 0.16579 0.30375 -0.046988 -0.15831 0.30634 0.062608 0.13499 -0.12431 -0.27072 0.046179 0.013678 -0.005052 -0.34584 0.47221 -0.17504 -0.090214 0.095414 -0.18911 -0.15282 0.031026 -0.077949 0.23655 0.40919 0.044006 -0.10292 0.17724 -0.083554 0.1936 -0.21486 0.11999 0.21451 -0.077542 -0.030595 -0.009075 0.095164 0.010732 -0.023283 -0.087084 
DNA 0.0011005 0.094271 -0.43671 -0.061464 -0.067304 0.74601 0.63671 0.41873 -0.88921 0.52732 0.042608 -0.0064151 0.21771 0.46582 0.5169 -0.38067 -0.1458 0.13412 -0.037611 -0.06408 0.22269 -0.51548 0.38584 0.092233 -0.38166 0.20689 -0.38138 0.04288 0.026494 0.21374 -0.34655 -0.52109 -0.46804 -0.4853 0.69468 0.0031229 -0.44845 0.042133 -0.22178 0.474 0.032408 0.43223 0.35093 -0.081069 0.28932 0.20193 -0.1401 -0.1535 -0.74823 -0.62285 0.53827 0.12957 0.10798 -0.042874 0.33362 0.10525 -0.78863 -0.12749 0.093882 0.13813 0.26335 -0.32334 0.22491 -0.31269 -0.18956 -0.1167 0.14076 0.011099 0.12724 0.43264 -0.082504 0.40328 0.26184 -0.18597 -0.18172 0.080982 0.29792 0.078035 0.04726 -0.29366 -0.05438 0.13661 0.59196 -0.063725 0.47049 0.067914 0.11331 -0.76424 -0.4335 0.0095308 -0.86445 0.060052 0.39913 -0.062161 0.125 0.1772 0.41634 -0.57076 0.1157 0.68357 
